 0 1 2 3 4 5 6 7 8 9 10 11 12 13 14 15 16 17 18 19 20 21 22 23 24 25 26 27 28 29 30 31 32 33 34 35 36 37 38 39 40 41 42 43 44 45 46 47 48 49 50 51 52 53 54 55 56 57 58 59 60 61 62 63 64 65 66 67 68 69 70 71 72 73 74 75 76 77 78 79 80 81 82 83 84 85 86 87 88 89 90 91 92 93 94 95 96 97 98 99
hi 0.04137612 0.05517898 0.028412847 0.023052325 -0.023842696 0.0064527025 0.017218059 0.0053317565 -0.035766684 -0.037011042 -0.03849746 0.02181856 0.011214161 0.004816671 0.0043706596 0.017436247 -0.022741904 0.01629872 0.03261627 0.05600338 0.013628705 -0.044344448 -0.004922154 0.033661917 0.03264413 0.014254883 0.028768348 0.0020781006 0.053201444 -0.012321198 0.040508915 0.01679021 -0.016969725 -0.01852532 -0.0197346 -0.013894354 0.0015345702 0.045454573 -0.053295307 0.026619531 -0.030837767 -0.032290947 0.00522445 0.0073545747 -0.0063638035 0.0059171095 0.0006131342 -0.0048522847 0.001302512 0.00018120128 -0.005110075 -0.06203131 0.013269922 -0.00021874014 -0.07609528 0.009284978 -0.0018253791 0.020859169 0.041072242 0.023507264 -0.04431219 0.005557895 -0.047311105 -0.004330214 0.03675385 -0.010941745 -0.01520654 0.056547932 -0.0024322167 -0.029564725 0.029309047 0.023667978 -0.0065849847 0.008963315 -0.050036415 -0.04713858 -0.009026206 0.00797541 0.04030517 0.005047374 -0.06776587 0.035083093 0.050894856 -0.03496533 -0.03536083 -0.022857249 -0.024300698 0.03721011 0.0073487693 -0.06979315 -0.023642315 0.023034582 0.003314193 -0.08009857 -0.08924944 0.020188086 -0.0015445789 0.0151671665 -0.007849573 0.059967425
what 0.358229 0.43731096 0.19664103 0.16788594 -0.15485913 0.029761236 0.13095552 0.070134185 -0.30191496 -0.31974342 -0.31381077 0.1410932 0.047377814 -0.0022367572 0.075160414 0.1372208 -0.20463593 0.1304221 0.24540031 0.40404925 0.10627547 -0.33056194 -0.052368604 0.2623199 0.21601446 0.120443 0.216709 0.030032009 0.38228324 -0.06971497 0.28557524 0.10966638 -0.12385714 -0.13533303 -0.123064 -0.07480097 0.024159547 0.33692065 -0.4227791 0.17729796 -0.27426597 -0.21741073 0.07667791 0.026122794 -0.062649496 0.0109170545 0.0038182156 -0.016930858 0.01489154 0.011172949 -0.057240777 -0.48700154 0.12379915 0.008641152 -0.56785434 0.06498905 -0.02229124 0.14943114 0.32048383 0.18833317 -0.35992035 0.018579733 -0.33945876 0.0036429164 0.2639333 -0.08070136 -0.11803974 0.4078947 -0.020134803 -0.25624216 0.19661589 0.17748961 -0.08141559 0.035596132 -0.35673097 -0.35743842 -0.094704956 0.09861888 0.34794453 0.050115418 -0.49650592 0.30595118 0.42937082 -0.23710196 -0.30805486 -0.19912079 -0.19721 0.27996278 0.091741085 -0.51867205 -0.16854186 0.20364636 0.018843213 -0.6542766 -0.68775994 0.13165045 0.0103453165 0.14260557 -0.055199634 0.4804139
is 0.5282199 0.6629475 0.29315916 0.2520636 -0.22773542 0.044012863 0.19861583 0.111783385 -0.43979812 -0.49097097 -0.46807072 0.2161858 0.07209436 0.0075317393 0.10761964 0.19797531 -0.30842212 0.19527084 0.38067085 0.59925747 0.16623491 -0.49878398 -0.07766088 0.3913398 0.32310694 0.18995123 0.32949767 0.03478164 0.56470376 -0.10868225 0.43861303 0.15918402 -0.19608277 -0.21423565 -0.18499109 -0.1125848 0.041210093 0.50213367 -0.6318904 0.26759022 -0.39954785 -0.32375032 0.11886463 0.043610595 -0.08547355 0.004861578 0.010766867 -0.030362563 0.033070754 0.0064840456 -0.08813635 -0.74022895 0.17393443 0.022869634 -0.84834206 0.08846941 -0.040022843 0.22502372 0.4802594 0.28108698 -0.54417473 0.033125687 -0.5001613 0.0025178224 0.390812 -0.11812669 -0.18920445 0.61581415 -0.01957984 -0.38438454 0.29656097 0.25662524 -0.11943319 0.047987875 -0.53832215 -0.5362163 -0.14380734 0.14864117 0.5124402 0.078394234 -0.74496865 0.46834224 0.63818777 -0.3573777 -0.4614142 -0.2956332 -0.30045393 0.4266533 0.12953 -0.7656528 -0.2535249 0.29836658 0.027560787 -0.97234225 -1.0331289 0.20523763 0.00855394 0.21923874 -0.09176744 0.71546865
your 0.40531364 0.5132058 0.22483106 0.18939635 -0.18073477 0.026123645 0.15681925 0.08459827 -0.34675568 -0.38020116 -0.3627092 0.16693814 0.05699261 0.004948209 0.079838514 0.15715843 -0.24142274 0.14870979 0.29406452 0.4643505 0.121532805 -0.3828123 -0.053709053 0.30260438 0.25604942 0.15143558 0.25360006 0.025612636 0.43949038 -0.08819457 0.33580938 0.12595838 -0.15021919 -0.15790801 -0.14550284 -0.08960752 0.022947587 0.38975284 -0.4894329 0.20448102 -0.3082025 -0.24762487 0.08911099 0.035181273 -0.067522146 0.009537346 0.0010892374 -0.02338233 0.026751796 0.006065789 -0.07489651 -0.5738422 0.13854906 0.018118437 -0.6586166 0.07152386 -0.02243922 0.17843695 0.37764782 0.2171331 -0.42232946 0.02302389 -0.38266346 0.0021567927 0.3025357 -0.09232002 -0.1434931 0.47082284 -0.014762726 -0.29176524 0.22451232 0.20017561 -0.09668456 0.040480465 -0.40827608 -0.41706067 -0.11241408 0.1164864 0.40448892 0.057616003 -0.5723794 0.35933846 0.48879442 -0.28184178 -0.35834777 -0.2231566 -0.2317344 0.3324572 0.106938176 -0.5928437 -0.20600459 0.2376246 0.023217326 -0.7607274 -0.80140865 0.15949939 0.012382509 0.1656744 -0.07031129 0.55690825
favorite 0.1684716 0.21365458 0.09099628 0.08521148 -0.07031179 0.013988756 0.061313264 0.035436776 -0.13895637 -0.16080657 -0.14581832 0.06643734 0.0241913 0.0051742 0.039617274 0.06118097 -0.1000912 0.064762905 0.117898315 0.19907343 0.049581967 -0.16536298 -0.028480941 0.12808286 0.10687771 0.06543897 0.10458917 0.013179467 0.18498991 -0.03479449 0.13522258 0.050431527 -0.06535289 -0.06403081 -0.057517137 -0.035429485 0.008630182 0.16633472 -0.20759204 0.08505945 -0.13117915 -0.10441803 0.032878872 0.01675354 -0.032398056 0.0014696135 0.0069951448 -0.006466694 0.0108541455 0.0037894882 -0.026543733 -0.23806341 0.055697437 0.0026715994 -0.27331048 0.03331336 -0.008332108 0.07226058 0.15402617 0.09097403 -0.1781607 0.0105076125 -0.15991512 -0.0028924637 0.12598002 -0.040534724 -0.0611112 0.19437462 -0.0037370159 -0.1264833 0.099002205 0.08753159 -0.041247863 0.02140893 -0.17673717 -0.1771561 -0.047435667 0.045412615 0.16569525 0.029950874 -0.2415042 0.14915657 0.20874624 -0.118164316 -0.14787908 -0.09757173 -0.092404485 0.13884461 0.041310105 -0.24525197 -0.08256615 0.102063015 0.008019253 -0.3201843 -0.33654156 0.061578277 0.00022062995 0.06777733 -0.030995928 0.22937183
holiday 0.044983953 0.047960956 0.018764276 0.017522324 -0.020427642 0.0029538183 0.015528783 0.012210018 -0.037340257 -0.035052277 -0.036189187 0.015549063 0.0011006151 0.0040005245 0.0057288166 0.017655697 -0.02684708 0.011970225 0.031844396 0.048288003 0.010591578 -0.040301885 -0.010621301 0.03574982 0.021019077 0.016916346 0.0285359 0.004233243 0.045460656 -0.013541298 0.037329663 0.0075678374 -0.0132213095 -0.017226266 -0.010212873 -0.013725585 0.0002547628 0.04142307 -0.051201098 0.023270836 -0.02991494 -0.029977752 0.010127394 0.006793418 -0.008558667 0.002658074 0.0016900987 -0.004140837 0.001269923 0.0016924061 -0.005568788 -0.05457375 0.016636295 -0.0024146517 -0.06830011 0.009062022 -0.003682597 0.01875878 0.042196024 0.025937507 -0.045198187 -0.0011796758 -0.038676806 0.00024136911 0.034435242 -0.008969237 -0.017704267 0.051907398 0.0019046186 -0.027099572 0.024259375 0.025035758 -0.0103714345 0.0019039391 -0.044998217 -0.04607121 -0.009582775 0.016418304 0.044014405 0.006885927 -0.05902648 0.03549628 0.054700315 -0.023782838 -0.036017198 -0.025235755 -0.020731322 0.034610987 0.014308139 -0.063928306 -0.01794444 0.020862041 -0.002462276 -0.07558509 -0.086486116 0.012097314 0.005013791 0.013543608 -0.011219439 0.053579178
one 0.3452008 0.42839554 0.18459602 0.16075157 -0.14704756 0.02926199 0.12922497 0.074018605 -0.28882658 -0.31287855 -0.29560408 0.13816406 0.0454969 0.0070103197 0.06347612 0.123898186 -0.19671378 0.1299701 0.24463634 0.38399184 0.10209496 -0.3228265 -0.044928093 0.25686136 0.20616005 0.11986356 0.21092798 0.029399898 0.36407575 -0.066892564 0.28037885 0.10363741 -0.120967366 -0.13198425 -0.123500146 -0.070632294 0.021015314 0.32366785 -0.40676177 0.16946413 -0.26304343 -0.2061621 0.073419675 0.024618343 -0.05271722 0.0030257876 0.0021275107 -0.018720746 0.017362915 0.011079968 -0.054210123 -0.47079974 0.10940148 0.012718983 -0.5384439 0.054697253 -0.025632467 0.13882667 0.30987558 0.18254232 -0.34798905 0.014605746 -0.3234828 0.0019622198 0.25443456 -0.07796593 -0.11436563 0.39016795 -0.020944433 -0.24670304 0.1897097 0.16532877 -0.07243716 0.03641082 -0.34742284 -0.3442022 -0.09113392 0.092759654 0.33659282 0.054431584 -0.479723 0.2957306 0.40594918 -0.22835739 -0.2963772 -0.18698592 -0.19595706 0.2656291 0.08982378 -0.4929138 -0.1674473 0.19198881 0.020991402 -0.6231723 -0.6654915 0.12926775 0.006515657 0.14057171 -0.053745393 0.4638573
where 0.17449136 0.2195794 0.09442452 0.08742992 -0.079427324 0.017512448 0.066595495 0.033893764 -0.15311165 -0.15855667 -0.15885262 0.07290057 0.022646982 -0.001022568 0.03786967 0.065334775 -0.10375208 0.06626997 0.12948662 0.20204979 0.05882138 -0.16762923 -0.02251207 0.13516055 0.1113271 0.06683077 0.1073724 0.018146327 0.19266392 -0.032922957 0.14832854 0.0566937 -0.061345182 -0.07178637 -0.06154587 -0.032101545 0.0114917485 0.17156194 -0.20693469 0.09180459 -0.13480787 -0.10697866 0.043440305 0.019362133 -0.029413303 0.0027154465 0.006405959 -0.009829878 0.013147361 0.006765807 -0.033526152 -0.24731626 0.063835114 0.008049316 -0.2834417 0.034415863 -0.010553008 0.07545018 0.16343829 0.09389783 -0.18644004 0.0133569995 -0.16786528 8.640938e-05 0.13355105 -0.04152117 -0.05964482 0.21139859 -0.0046297098 -0.12384509 0.09842812 0.08830111 -0.04018388 0.01889011 -0.17749852 -0.18207774 -0.05362795 0.04540809 0.17197593 0.02234677 -0.25012666 0.15387392 0.21186595 -0.12369483 -0.15575045 -0.10206541 -0.101690516 0.13866833 0.03998769 -0.2569495 -0.090874545 0.10588416 0.013514822 -0.32355696 -0.34165382 0.06684667 0.0016500549 0.070722446 -0.03095644 0.23808242
i 0.68669486 0.86187184 0.37896267 0.32031572 -0.3025549 0.05672961 0.25878862 0.14703327 -0.5749235 -0.6325724 -0.6079633 0.2826667 0.09362468 0.007028122 0.13738714 0.26032507 -0.4038421 0.25836512 0.49301025 0.7818994 0.21640082 -0.65312684 -0.10190388 0.5088359 0.4179295 0.24742179 0.4264236 0.048802413 0.73732334 -0.1433744 0.55884016 0.19802412 -0.25306177 -0.26778895 -0.24751794 -0.1442359 0.054103665 0.6580429 -0.817854 0.34740925 -0.5193597 -0.4101585 0.14949538 0.057841543 -0.12105404 0.011147911 0.008648851 -0.04376802 0.0383127 0.016555805 -0.118768506 -0.9600176 0.23294345 0.030124912 -1.0994972 0.12378644 -0.04194242 0.28464925 0.6263951 0.3745376 -0.7078381 0.04264642 -0.65284836 -0.00070780644 0.5060615 -0.15714777 -0.23904888 0.8001044 -0.036592513 -0.49721187 0.38133863 0.33385295 -0.1561301 0.06129146 -0.6992838 -0.69844174 -0.19224504 0.18764943 0.6655326 0.109281674 -0.9672879 0.60570854 0.82851166 -0.47137034 -0.5972993 -0.38791543 -0.39071026 0.54982686 0.16847585 -0.9982549 -0.33890003 0.3925317 0.039476868 -1.2630199 -1.3325925 0.26934198 0.01448922 0.28407958 -0.1185472 0.9387486
get 0.30586067 0.37917095 0.16437097 0.13980916 -0.13283715 0.024360297 0.10970702 0.06330928 -0.25009823 -0.27944377 -0.2644083 0.122306116 0.04721522 0.0011992715 0.05932393 0.10820584 -0.17679977 0.11225635 0.21884969 0.34444687 0.09479354 -0.2920162 -0.04207367 0.22241485 0.19008723 0.10686503 0.18938628 0.02111078 0.318196 -0.06835956 0.2444374 0.084258065 -0.11078029 -0.11747388 -0.10599543 -0.060478106 0.020710174 0.29476795 -0.35849616 0.15516593 -0.22666267 -0.1850152 0.06959228 0.02905093 -0.050416574 0.009426148 0.007638997 -0.014413209 0.015037586 0.007158816 -0.05727135 -0.42301276 0.096703984 0.01506593 -0.48601416 0.054961085 -0.025307428 0.13226534 0.27367777 0.16449898 -0.31089434 0.011876077 -0.28234538 -0.0041494663 0.22369835 -0.07087791 -0.107411385 0.35409212 -0.015450647 -0.21643831 0.17279953 0.14658944 -0.071805425 0.031805817 -0.30597413 -0.30372426 -0.08012764 0.087130144 0.29880098 0.045993384 -0.42060316 0.2607663 0.36773276 -0.20098567 -0.26682308 -0.16359797 -0.17469104 0.24311785 0.07073481 -0.43635565 -0.1439125 0.1736425 0.010643989 -0.561083 -0.5922671 0.11535988 0.0036571508 0.12877685 -0.047810424 0.41240686
to 0.69703233 0.86240804 0.3776107 0.32446894 -0.2986329 0.055678584 0.25449997 0.14332406 -0.5843733 -0.6360401 -0.6087616 0.2867642 0.10135605 0.0031050926 0.14106049 0.25570378 -0.4003015 0.25281137 0.49303937 0.78135514 0.20847179 -0.65465325 -0.097873166 0.5106392 0.42493704 0.24985927 0.43425754 0.056867085 0.73272973 -0.14228767 0.56874365 0.20814282 -0.24515672 -0.27658615 -0.24034025 -0.13952334 0.054138973 0.6646268 -0.8168795 0.34469476 -0.525477 -0.417729 0.1542706 0.064256534 -0.11821496 0.01015138 0.012698807 -0.039940987 0.035268344 0.01441412 -0.11699668 -0.9614102 0.22721948 0.027945472 -1.1097889 0.11472277 -0.046181265 0.29541877 0.6282583 0.37563503 -0.70758665 0.040081516 -0.6580672 -0.0063555553 0.5152916 -0.15696472 -0.2466058 0.80394256 -0.030472258 -0.4976896 0.38498417 0.33900496 -0.14900778 0.06641858 -0.6995232 -0.700763 -0.18487112 0.19081385 0.67618865 0.102544054 -0.9690565 0.6089451 0.83218634 -0.46419114 -0.606179 -0.3886918 -0.38483948 0.5545562 0.17722026 -1.009032 -0.34039518 0.39041382 0.034170825 -1.2754936 -1.3385113 0.2642995 0.019283313 0.288381 -0.11700805 0.9430644
meet 0.07983351 0.09938286 0.045896318 0.03548957 -0.03596554 0.010082377 0.035365272 0.020972366 -0.069666795 -0.0707355 -0.07183897 0.03651861 0.0069155 0.0038959552 0.015300698 0.029437121 -0.04697326 0.029955663 0.05535883 0.0949709 0.021588767 -0.07562221 -0.012159347 0.064140916 0.054357886 0.025598887 0.052132837 0.006052257 0.087072834 -0.015299041 0.069294 0.02782962 -0.034509335 -0.037401572 -0.029733032 -0.01223606 0.006256698 0.07500627 -0.09249033 0.037145957 -0.06278014 -0.04455392 0.01798919 0.009356416 -0.011785045 0.0059131724 2.0845431e-05 -0.0013275568 0.005160978 0.0035623123 -0.018380007 -0.11874509 0.028134814 0.0019594117 -0.1340935 0.01879378 -0.005179502 0.030720692 0.07702687 0.042775888 -0.08137222 0.0056980033 -0.076825574 0.0010159657 0.062028747 -0.016716238 -0.031311896 0.09087181 -0.008632578 -0.05825995 0.049969055 0.036050625 -0.01617558 0.00435586 -0.08094804 -0.08425288 -0.024701199 0.021613147 0.07942211 0.015915105 -0.113871045 0.073622525 0.09638972 -0.052199334 -0.07278763 -0.04278527 -0.045344878 0.06969893 0.02524844 -0.11594669 -0.035977017 0.04425187 0.007617397 -0.1556464 -0.16319901 0.03349667 -0.0033672655 0.029913412 -0.017089821 0.11018635
lots 0.066472426 0.090749055 0.04173883 0.03464824 -0.028010642 0.010405923 0.02629975 0.018562648 -0.055132486 -0.068878114 -0.06119968 0.032652788 0.011467733 0.0011066921 0.013107669 0.026311956 -0.0373618 0.02467296 0.050017606 0.08339937 0.021900754 -0.07030356 -0.015123465 0.054072566 0.04537335 0.028201476 0.04072607 0.007160352 0.07667466 -0.018087512 0.053930078 0.017041543 -0.022635847 -0.02808087 -0.027423661 -0.014625691 0.00667174 0.066933356 -0.08667107 0.036279194 -0.05350075 -0.042147223 0.018609125 0.006637977 -0.010576022 0.0037283748 -0.0026539403 -0.008390076 0.0004416854 0.001884116 -0.012844813 -0.10100761 0.027214747 0.0011499154 -0.117478006 0.0073743407 -0.007729613 0.03051712 0.0683208 0.03796017 -0.07367156 0.00209623 -0.0660824 -0.003371114 0.049780514 -0.014474136 -0.020327551 0.0812536 -0.00090431294 -0.04686906 0.04265874 0.03870713 -0.012970642 0.0078001665 -0.070935085 -0.06933234 -0.01559579 0.019405833 0.07317346 0.01155067 -0.101974055 0.06605835 0.08923912 -0.04982113 -0.06185048 -0.038221154 -0.044951353 0.055314608 0.017531358 -0.09846929 -0.029718712 0.040034063 3.4649624e-05 -0.13484335 -0.13772027 0.026796633 0.0060256254 0.031714454 -0.013787754 0.09201309
of 0.5692899 0.71504986 0.30908176 0.26483944 -0.2511619 0.047379952 0.20832041 0.120779105 -0.47404867 -0.52311707 -0.5035998 0.23112153 0.079128936 0.008382342 0.118205145 0.21219456 -0.33660144 0.21458556 0.40864033 0.64735466 0.17398602 -0.54502386 -0.08158479 0.42715487 0.35589272 0.19982952 0.3563811 0.04498037 0.6114349 -0.11409101 0.47261178 0.16996545 -0.2101677 -0.23064561 -0.19611794 -0.1169275 0.04334457 0.5518605 -0.67816144 0.2870172 -0.43884233 -0.34742787 0.1232935 0.050471947 -0.0918993 0.01262759 0.006626313 -0.039522324 0.033871926 0.0075595616 -0.100995354 -0.79614764 0.1858369 0.020276835 -0.9148744 0.10311543 -0.03835764 0.23958671 0.52407724 0.3085387 -0.586993 0.032520756 -0.5421932 -0.007049216 0.4258384 -0.13680056 -0.19665147 0.6635753 -0.023369765 -0.40848607 0.3127383 0.2833039 -0.12362739 0.05050588 -0.5771347 -0.5796446 -0.16181226 0.15122043 0.5579617 0.08612617 -0.7945249 0.49867976 0.68413234 -0.39119527 -0.50131875 -0.32111758 -0.31967306 0.4547378 0.13827741 -0.8297213 -0.2744384 0.32913598 0.028496228 -1.0482522 -1.114788 0.22385234 0.0069185616 0.23312595 -0.0905943 0.7747823
different 0.12995708 0.16159463 0.06762259 0.05698776 -0.05801657 0.014213941 0.04644815 0.027143925 -0.11021966 -0.12095442 -0.106728375 0.048294924 0.015507071 0.0035928483 0.023349766 0.052146338 -0.074797094 0.042405684 0.09241884 0.14645773 0.042636342 -0.121334255 -0.020320192 0.098136775 0.08177024 0.045503188 0.08219198 0.014043285 0.13794068 -0.023092018 0.1081948 0.03558518 -0.049119323 -0.05168661 -0.044847474 -0.029564254 0.0072956625 0.12410531 -0.1496323 0.059660424 -0.098237604 -0.071584485 0.029902136 0.01236813 -0.02434062 0.0007040526 0.0058009396 -0.010927832 0.00985798 0.005365049 -0.02329611 -0.17140687 0.03926886 0.0066484385 -0.20129073 0.019757815 -0.005847197 0.057576187 0.11162542 0.06999273 -0.1252648 0.009557282 -0.12175862 -0.0046885093 0.0941618 -0.025443913 -0.04565565 0.14677516 -0.0046886033 -0.08876411 0.074127555 0.06538056 -0.031627346 0.015115233 -0.1236952 -0.12780029 -0.031812456 0.036386557 0.12155252 0.018767172 -0.1763642 0.113689914 0.1538798 -0.08172785 -0.10595236 -0.06577561 -0.069049746 0.0958769 0.027273925 -0.18850748 -0.060900092 0.068190165 0.001360389 -0.23044814 -0.2493977 0.05157208 0.004188241 0.04854184 -0.02398062 0.1741025
people 0.27092153 0.3391129 0.14764337 0.12393356 -0.12361861 0.024225924 0.10181589 0.062190656 -0.22938418 -0.255425 -0.24093631 0.11234422 0.033300582 0.004846202 0.053938396 0.10520094 -0.16153075 0.10295723 0.1906026 0.31279412 0.080859214 -0.26005483 -0.040874377 0.20148672 0.1638828 0.0941375 0.16604626 0.022805925 0.2900323 -0.056329977 0.22736242 0.07637017 -0.100989595 -0.10472344 -0.09754701 -0.0515513 0.020034188 0.25981018 -0.32584268 0.13223611 -0.20767173 -0.16902669 0.054421075 0.022237588 -0.04511025 0.003065275 0.0048669493 -0.014761004 0.012425625 0.005943745 -0.04350757 -0.38204268 0.08927845 0.0066215927 -0.43155554 0.043867856 -0.019172952 0.114458255 0.24681424 0.1414748 -0.27878875 0.016393118 -0.25797036 0.0014967977 0.19765389 -0.06543216 -0.09057417 0.3197766 -0.011514433 -0.19687462 0.14790802 0.13290274 -0.058662012 0.023223769 -0.27385658 -0.27970156 -0.07394024 0.07279854 0.26153296 0.039198246 -0.38464534 0.23503526 0.33163074 -0.18852206 -0.2412098 -0.15534998 -0.15378277 0.21977313 0.06763114 -0.39200827 -0.13358289 0.15758693 0.013130526 -0.50426096 -0.53358775 0.11008735 0.009024051 0.11174733 -0.043697625 0.37042186
was 0.37438607 0.47226736 0.20476101 0.17407563 -0.16428909 0.025785102 0.13518414 0.0757666 -0.3164391 -0.34215605 -0.33395344 0.15368989 0.04949027 0.0058283536 0.07646097 0.14154136 -0.21547186 0.13908228 0.26513618 0.42991295 0.113382846 -0.35374752 -0.05821859 0.27728012 0.2362592 0.13158853 0.23264042 0.030106397 0.40321872 -0.07509987 0.31038007 0.106856376 -0.14045604 -0.14555836 -0.13336831 -0.076087646 0.026041595 0.36340633 -0.44910014 0.18923554 -0.2890622 -0.22165781 0.08325398 0.032472737 -0.05861883 0.0058950786 0.00243431 -0.026551897 0.020258315 0.00512622 -0.06414019 -0.5197499 0.12713078 0.018181462 -0.6021418 0.059544507 -0.024222955 0.15612902 0.3415907 0.20614919 -0.3844702 0.02511026 -0.35786 0.0028233195 0.2757253 -0.08609071 -0.13295223 0.43714222 -0.013223782 -0.26890978 0.20539172 0.18051568 -0.08775537 0.03965618 -0.3827057 -0.37829444 -0.10874676 0.10017493 0.37157074 0.05913507 -0.5314411 0.32783535 0.45697537 -0.25648436 -0.32680273 -0.20487534 -0.21548633 0.3013402 0.09654426 -0.5476771 -0.18759139 0.21492419 0.017765276 -0.69888175 -0.73622656 0.1491843 0.0060678106 0.15999523 -0.06666096 0.5138122
the 0.70610726 0.87894714 0.38074923 0.32362524 -0.31181946 0.05202392 0.2567821 0.14275248 -0.5894658 -0.6395329 -0.61504614 0.29324168 0.10281301 0.0045466837 0.14116536 0.26409546 -0.41160524 0.2625807 0.49228692 0.80042875 0.21319601 -0.66233945 -0.10355845 0.524589 0.42937335 0.2448426 0.4341383 0.049731776 0.745715 -0.14619464 0.5689413 0.21089278 -0.24952859 -0.28111732 -0.24881391 -0.14467466 0.055716116 0.66612554 -0.82405007 0.35719848 -0.5267328 -0.42150357 0.15278758 0.06001129 -0.11495624 0.015266467 0.013381394 -0.047769904 0.03380802 0.016460821 -0.12080348 -0.9697896 0.23463698 0.030503383 -1.122477 0.12388485 -0.051866796 0.29860786 0.63515025 0.37852737 -0.7155435 0.036943246 -0.66548854 0.0019582487 0.52206343 -0.15815563 -0.2442318 0.8097672 -0.029839745 -0.50493914 0.3916739 0.3440487 -0.16011448 0.067014955 -0.7078057 -0.71039194 -0.18921317 0.1919219 0.6846245 0.11011607 -0.97880834 0.6125023 0.84503925 -0.47272173 -0.612098 -0.39474446 -0.39040473 0.5568386 0.17401578 -1.0213304 -0.34417292 0.39393204 0.033505995 -1.293805 -1.3635702 0.2741673 0.014622649 0.28608143 -0.12133792 0.9500264
most 0.16187951 0.20421976 0.090744905 0.07615129 -0.071830034 0.011671368 0.06283104 0.033513535 -0.13486496 -0.1568049 -0.14500488 0.07134838 0.019349802 -0.0037325767 0.028032348 0.06052362 -0.094572015 0.06541297 0.12162764 0.19003648 0.04880785 -0.16144496 -0.024372857 0.12229372 0.105668426 0.055386197 0.09986694 0.014795802 0.17226708 -0.036160525 0.13866113 0.04532924 -0.057500094 -0.062177107 -0.05605994 -0.038804088 0.015779631 0.15482937 -0.19656119 0.08763713 -0.12144737 -0.09634293 0.036035996 0.015816707 -0.026723063 0.0020704807 0.005737633 -0.0073823663 0.010430821 0.00044961742 -0.033212904 -0.23295295 0.058009595 0.009373873 -0.26093954 0.029149998 -0.013663931 0.07468316 0.15142368 0.083969705 -0.16546829 0.008666507 -0.15537095 0.0038430872 0.12570687 -0.036353398 -0.055468336 0.19135645 -0.005889206 -0.12017305 0.094084084 0.082024924 -0.032749668 0.019355275 -0.16873972 -0.16307795 -0.041832585 0.050183035 0.16398424 0.029177524 -0.22887243 0.15038943 0.1990656 -0.10945796 -0.14717682 -0.089236975 -0.09286775 0.13457134 0.042295996 -0.24488996 -0.08327433 0.08989074 0.010151284 -0.30934215 -0.3214277 0.06312786 0.0071704215 0.068593055 -0.02790129 0.22195844
number 0.03326916 0.045595456 0.017996712 0.012160398 -0.015508385 0.006430812 0.010805426 0.011556518 -0.032597553 -0.0316084 -0.027555907 0.019275509 0.000590261 -0.0010921932 0.0032317159 0.0089622075 -0.025702113 0.017369032 0.026254945 0.044156224 0.005877432 -0.032183293 -0.0086371815 0.030936206 0.02107851 0.017249811 0.019666366 0.0022749514 0.042819127 -0.004614387 0.031483017 0.0075897374 -0.01628767 -0.010583101 -0.017392725 -0.002384931 0.0043775695 0.037025865 -0.0445108 0.02205004 -0.030078093 -0.024921356 0.005853868 0.007213435 -0.009510461 0.0023072 -0.0016183814 0.0002874094 -8.873432e-05 0.0044157933 -0.0064923214 -0.04905985 0.012106205 0.0025774452 -0.05247268 0.010085129 -0.0062174224 0.010120794 0.028968178 0.016246397 -0.033527598 -0.0001831931 -0.029373089 -0.004727511 0.025164397 -0.0131848175 -0.014705925 0.045154836 -0.00043854036 -0.02450929 0.021351054 0.01609553 -0.006609048 0.007444878 -0.035016038 -0.0404205 -0.007381424 0.011364899 0.03743998 0.0037094061 -0.046542767 0.026570939 0.04268322 -0.027799562 -0.03093588 -0.018940147 -0.017336646 0.027572662 0.010857903 -0.0553663 -0.019768925 0.024441872 -0.0024452878 -0.06157018 -0.065381065 0.012070232 0.002439964 0.0142449895 -0.00904516 0.048343595
you 0.558812 0.692792 0.30483574 0.26524663 -0.24747644 0.037987474 0.20703173 0.11626638 -0.46534523 -0.5129544 -0.48947164 0.23323922 0.07582709 0.002577116 0.10873832 0.20276009 -0.3242437 0.20144437 0.38877106 0.6287908 0.16638055 -0.52801424 -0.08025022 0.40749252 0.34523556 0.19436154 0.3488316 0.04030889 0.5865235 -0.116711356 0.45098057 0.16842479 -0.19783401 -0.2239562 -0.19348495 -0.11354468 0.044769265 0.53014034 -0.6562047 0.28142858 -0.4231975 -0.32875338 0.12189657 0.05191889 -0.09039613 0.013429861 0.009199587 -0.039012533 0.030329796 0.011814869 -0.098474026 -0.77641857 0.18137728 0.019764505 -0.89267606 0.097411625 -0.032711282 0.23759682 0.50716704 0.30271256 -0.56326234 0.03284036 -0.5206307 -0.003318298 0.41442358 -0.12623106 -0.1922777 0.64767313 -0.030383175 -0.3995479 0.3129893 0.2730337 -0.124555655 0.052584775 -0.5634905 -0.56029123 -0.15205425 0.15321586 0.53931314 0.08548778 -0.77923375 0.48691875 0.66829723 -0.37377226 -0.48069707 -0.3062337 -0.3068739 0.44081745 0.1360633 -0.8073157 -0.27245674 0.31158078 0.026586976 -1.0270143 -1.0838722 0.21678926 0.007318924 0.2315095 -0.097259186 0.748888
have 0.52269775 0.647454 0.28687277 0.2427074 -0.22544324 0.04386082 0.1887297 0.111784995 -0.4416991 -0.4767986 -0.45836574 0.2197302 0.07579284 0.0001454535 0.10030232 0.18949367 -0.30049914 0.19640177 0.37244427 0.59405464 0.16004902 -0.49882892 -0.07266658 0.3896423 0.31662935 0.18612495 0.32054102 0.034618855 0.5557778 -0.113104016 0.4280389 0.15659833 -0.18702208 -0.20631035 -0.18842189 -0.104147196 0.03287149 0.50130296 -0.6112305 0.26700345 -0.39828277 -0.31878364 0.11648668 0.04444307 -0.09105105 0.0066647804 0.007509609 -0.03507914 0.031598557 0.009004846 -0.093134284 -0.7246616 0.17237464 0.019706741 -0.83702236 0.08990182 -0.033644192 0.21721898 0.47250602 0.27922633 -0.52712756 0.026100734 -0.48780084 -0.002025647 0.38351792 -0.12528831 -0.18619843 0.6091039 -0.024505964 -0.37937155 0.28953177 0.25529408 -0.11372843 0.04590714 -0.52090764 -0.5313732 -0.14716573 0.1378503 0.5060266 0.08144435 -0.7296569 0.45739743 0.62506205 -0.35400832 -0.45582458 -0.28900766 -0.28915596 0.41572657 0.13364397 -0.7611505 -0.25569797 0.3005479 0.02864472 -0.95734465 -1.0158983 0.20097253 0.012018744 0.21939345 -0.09185046 0.7106137
ever 0.18271002 0.23510507 0.10176746 0.09093742 -0.07918103 0.013060536 0.068659484 0.038756464 -0.15729544 -0.17015015 -0.16200346 0.07357411 0.025484039 -0.0017677724 0.038096514 0.068283096 -0.107533865 0.06924453 0.12807949 0.20598982 0.05949555 -0.17897767 -0.029347768 0.1382269 0.11814889 0.06803978 0.113668464 0.008949893 0.19745743 -0.033395275 0.15278995 0.049950365 -0.06385058 -0.075138055 -0.06795557 -0.033096213 0.01637035 0.17587784 -0.21496965 0.093516394 -0.14149286 -0.111076005 0.042609088 0.017113492 -0.02784784 0.0013869129 0.002131548 -0.011093063 0.0110446 0.0068649794 -0.035258383 -0.2539789 0.06054056 0.0062371935 -0.29302377 0.03468605 -0.017330555 0.07451317 0.17128418 0.100442074 -0.19248863 0.0090564545 -0.17357503 0.0010294808 0.13914643 -0.043614417 -0.0685591 0.21689816 -0.0052798023 -0.12929407 0.099799864 0.08849552 -0.044498168 0.01896901 -0.18373223 -0.18878636 -0.048223045 0.054355193 0.17913142 0.026470112 -0.2590448 0.16178687 0.22340421 -0.12984034 -0.1647246 -0.09883222 -0.107137926 0.14355282 0.044839818 -0.27000582 -0.09534745 0.10880524 0.013700303 -0.34178358 -0.36097583 0.06714145 -0.0013455352 0.08011425 -0.028582308 0.25145626
met 0.04338013 0.049981683 0.022051563 0.023294741 -0.018470272 -5.3570624e-05 0.015576596 0.011486605 -0.029642418 -0.03764669 -0.039392117 0.016596248 0.0013003901 0.0012156907 0.0074259457 0.014033347 -0.023025353 0.010713611 0.024914825 0.04911283 0.015158396 -0.03260851 -0.0014222116 0.025785718 0.021837607 0.00915496 0.026787926 -0.0004162009 0.042219836 -0.003426541 0.02862387 0.016039232 -0.015657395 -0.014098132 -0.017871808 -0.0034106015 0.005555524 0.04006582 -0.04615242 0.024013946 -0.032807656 -0.023556989 0.008603921 0.0044597895 -0.0025368137 0.002549308 0.00036160357 -0.0062598903 -0.0005730399 -0.0033170613 -0.008127095 -0.051029902 0.016548967 0.001577158 -0.05973432 0.008323971 0.0014419126 0.015343862 0.034479022 0.018588623 -0.037467428 0.0060169715 -0.03361442 -0.00043760336 0.032916818 -0.009862939 -0.013462088 0.046891633 -0.0012469625 -0.032602217 0.022390239 0.023456542 -0.010845194 0.0049400553 -0.037248403 -0.035516933 -0.0061578276 0.013601249 0.035420682 0.0070840116 -0.051048428 0.03120893 0.050854005 -0.02571639 -0.030572483 -0.024044838 -0.0244812 0.029489104 0.008386114 -0.05350175 -0.020531932 0.018894456 0.0024671156 -0.077416815 -0.0770566 0.010501929 -0.004299611 0.018675402 -0.0045892172 0.052866913
during 0.112623215 0.13267869 0.059497587 0.047333777 -0.050469976 0.004404148 0.04042361 0.020525951 -0.09599598 -0.09470128 -0.09945177 0.04138129 0.010737313 -0.00033165797 0.019654758 0.039464463 -0.066422135 0.04390078 0.08124983 0.12703241 0.033024028 -0.10611477 -0.01119397 0.07555788 0.06275864 0.04306386 0.06976565 0.010271841 0.11978464 -0.021205442 0.0844064 0.026859568 -0.036431465 -0.04174404 -0.040627014 -0.021911442 0.008467234 0.10342239 -0.12987615 0.058909908 -0.083089165 -0.069641255 0.019266892 0.012403273 -0.015068135 0.004155051 0.0048955185 -0.0070730373 0.0072412225 0.0016300814 -0.018060092 -0.14684369 0.03622675 0.002064439 -0.17175488 0.021205034 -0.008290479 0.047953416 0.09831069 0.057079494 -0.10661101 0.008737564 -0.09807217 -0.002383968 0.08126992 -0.0248968 -0.04198575 0.12323354 -0.007507879 -0.075447075 0.06102811 0.05506999 -0.022022868 0.005302826 -0.10551284 -0.111628965 -0.033395357 0.031144977 0.10179429 0.021107364 -0.1505974 0.09936373 0.13272999 -0.07333545 -0.09610212 -0.06390622 -0.06469199 0.08638737 0.027212385 -0.15846848 -0.05072947 0.06277759 0.00762954 -0.1993094 -0.20597774 0.04465493 -0.00030026006 0.039864887 -0.017985899 0.1485321
a 0.672464 0.8384407 0.367946 0.3114473 -0.2969596 0.056455392 0.2469372 0.13754462 -0.56797147 -0.6160557 -0.58840936 0.28064314 0.090305656 0.006991108 0.13887323 0.25574344 -0.3964703 0.24857697 0.47162566 0.7582043 0.20448679 -0.64104134 -0.094705656 0.50250363 0.4099538 0.23792145 0.417772 0.05242982 0.720187 -0.13870421 0.5542307 0.20122464 -0.24332295 -0.26235744 -0.23913328 -0.14045346 0.052879952 0.64748 -0.7938491 0.34158704 -0.5133737 -0.4090898 0.14386609 0.06098532 -0.1106 0.008940974 0.015676215 -0.039741296 0.037489336 0.0076984824 -0.11407643 -0.93399906 0.22889376 0.024736706 -1.0786132 0.11366061 -0.0504528 0.2822546 0.607122 0.35596815 -0.6902438 0.041236542 -0.6344512 -0.003702685 0.4970049 -0.16128662 -0.23634633 0.78390247 -0.03641546 -0.4878298 0.3762927 0.32408333 -0.14725102 0.060054354 -0.68081033 -0.6820038 -0.18022788 0.18740112 0.6591011 0.106548764 -0.94462883 0.58189577 0.8031374 -0.4573175 -0.58896416 -0.3691181 -0.38307646 0.5383727 0.17184152 -0.9790088 -0.32672688 0.38603064 0.03223195 -1.242121 -1.3061895 0.25603172 0.01840428 0.2746047 -0.112462275 0.9154115
hard 0.096209265 0.12008092 0.04710604 0.04791858 -0.036933966 0.0058065536 0.03429069 0.022287026 -0.0748178 -0.08914789 -0.08089828 0.040434197 0.011218774 0.0017295959 0.016478172 0.034157697 -0.055354353 0.030976698 0.070459194 0.10161571 0.030824974 -0.09218419 -0.009115029 0.0713928 0.06111605 0.038224682 0.059931885 0.01202018 0.103186026 -0.018121598 0.073795944 0.030798826 -0.032559216 -0.038287077 -0.0353782 -0.017081527 0.0023237863 0.091758706 -0.10708345 0.043385103 -0.067269266 -0.054559715 0.02389009 0.0068090544 -0.012630205 0.0049417857 0.0009999545 -0.009447279 0.0026013495 -0.0024958213 -0.01924675 -0.12767802 0.03475001 0.003222541 -0.15344098 0.018434511 -0.008911483 0.039565016 0.08283905 0.04801548 -0.096414186 0.0009941664 -0.083091386 0.003596352 0.06387783 -0.021819802 -0.03353959 0.11067664 -0.003092066 -0.06445968 0.048350107 0.0504999 -0.020611646 0.012633696 -0.095569246 -0.09791577 -0.02742771 0.022500651 0.09129401 0.011665862 -0.13345385 0.08001646 0.115437634 -0.060734622 -0.07906991 -0.05366285 -0.04782247 0.0762686 0.01854877 -0.1324488 -0.043885395 0.052057058 0.008188129 -0.1746921 -0.18407717 0.03549563 -0.0008274161 0.037096925 -0.011126545 0.12253189
keep 0.06372233 0.071853146 0.030063504 0.024174767 -0.026089638 0.0026357546 0.019314177 0.015664222 -0.054001633 -0.058954198 -0.057828326 0.026274227 0.004182676 0.0037824453 0.00858677 0.01981173 -0.030894676 0.019834926 0.041714825 0.07014967 0.018795066 -0.05636293 -0.009729307 0.04629514 0.033807117 0.022445861 0.041257083 0.007970649 0.063011475 -0.009165432 0.046476223 0.020053487 -0.020372117 -0.024405679 -0.018305441 -0.007948645 0.0053776936 0.057252295 -0.07213872 0.030857023 -0.04434357 -0.031706072 0.0107943965 0.00906396 -0.013926676 0.0011739313 -0.0041005183 -0.007364807 0.0035844166 0.0032082242 -0.008243922 -0.085374 0.015354771 -0.001269256 -0.100567155 0.0077151814 -0.002873682 0.029245092 0.055884805 0.032234058 -0.06510971 0.0011291784 -0.060964525 -0.0043053213 0.04292496 -0.01674127 -0.016897742 0.06502469 -0.0017339243 -0.041746166 0.03620095 0.025945237 -0.00984845 0.003957285 -0.06279592 -0.061354578 -0.012340383 0.019420123 0.058963727 0.009428699 -0.081013605 0.050724868 0.07452098 -0.039368495 -0.05375875 -0.038697727 -0.031569056 0.044556025 0.016092159 -0.09109588 -0.027282214 0.031971555 0.007069902 -0.10849208 -0.1153355 0.018569013 -0.0026996774 0.027711118 -0.010437571 0.07964172
count 0.033694077 0.038630333 0.012790552 0.011679855 -0.008708607 -0.001400258 0.015583823 0.006310455 -0.026806442 -0.027713737 -0.028347872 0.015611565 0.0064272457 -0.0017251777 0.0049788016 0.013065858 -0.020463487 0.014088318 0.023184542 0.0320632 0.013097425 -0.023389565 -0.0067524347 0.025686974 0.017460462 0.0060425512 0.022290668 0.0025751896 0.030538162 -0.0046500247 0.027074404 0.0070539396 -0.010307375 -0.011089726 -0.0134716425 -0.003179159 0.0011496532 0.028156716 -0.030254947 0.014660583 -0.020072829 -0.014602259 0.010216841 0.0041279946 -0.006181982 0.0017642733 -0.0012718077 0.0008175819 0.0031151476 -0.0031837735 -0.0051367637 -0.037298754 0.0064878743 0.0019960003 -0.046721477 0.008445325 -0.0065947464 0.01017305 0.028644538 0.018615728 -0.03257974 0.0012041938 -0.029928677 -0.0035525295 0.02446093 -0.0027047335 -0.010994286 0.03326551 -0.0015765902 -0.020448618 0.017343525 0.01616257 -0.011557553 0.005527151 -0.033819564 -0.025153901 -0.010826629 0.004072476 0.032460283 -0.00040907465 -0.042149413 0.02902725 0.035563298 -0.017827138 -0.025279514 -0.012249893 -0.017421357 0.018502926 0.009352751 -0.038193345 -0.018156782 0.01674123 0.0063684224 -0.054357506 -0.052416015 0.012831651 0.0015932792 0.010166079 -0.0071842615 0.03721848
maybe 0.1115702 0.14166376 0.06712588 0.057063088 -0.046872914 0.0112068895 0.04382823 0.021551987 -0.09217523 -0.10482388 -0.09948236 0.051101077 0.02038197 -0.0017607847 0.027047442 0.04440309 -0.06656679 0.04152447 0.08020324 0.12600927 0.034171853 -0.1062708 -0.01251815 0.085361905 0.072804324 0.042868726 0.07242636 0.008828717 0.118928984 -0.023165181 0.09223948 0.029135877 -0.036802836 -0.04449141 -0.03914195 -0.019839982 0.01142951 0.11062907 -0.13397571 0.053606223 -0.085467175 -0.07127542 0.028909653 0.014525121 -0.015094102 0.0055132173 0.0024858355 -0.0051183645 0.002359952 -0.00058590795 -0.018987456 -0.15882349 0.03770529 0.005091715 -0.183791 0.02180624 -0.009282647 0.051454533 0.103013985 0.056968868 -0.115855575 0.010892915 -0.11207046 0.0038782866 0.08692498 -0.027999366 -0.03949393 0.13135186 -0.008909503 -0.08134877 0.06541304 0.05620719 -0.021937987 0.009594793 -0.116637975 -0.11429793 -0.031739913 0.031872023 0.10830215 0.01400148 -0.1618718 0.10048229 0.1424953 -0.073999316 -0.09722608 -0.06586328 -0.06599535 0.08694595 0.025742412 -0.16761021 -0.057727184 0.067423776 0.004385707 -0.20972897 -0.22328627 0.047693532 0.006463399 0.048422392 -0.015372245 0.15719378
25 0.01195317 0.010514699 0.0019400268 -0.0008366423 -0.006124843 0.00010140702 0.00023111931 0.00073203264 -0.008182855 -0.005559818 -0.0056224247 0.0018478646 -0.0025464671 -0.0016762774 -0.0030359046 0.00011286367 -0.0013386417 0.0057140416 0.005837982 0.0066386918 0.003713279 -0.003725727 0.0026164786 0.0071054315 0.008110326 0.0048168073 0.0072277896 0.003276281 0.01043428 -0.0038978783 0.0039496887 -0.0019218766 -0.0010331017 -0.005918747 0.0023094513 -0.0036037485 -0.00123601 0.008635709 -0.0034830032 0.0056352797 -0.00059532106 -0.0031312176 -0.0005276337 0.00383107 0.0020565449 -0.004129996 -0.0029978547 -0.0050832313 -0.0035535574 0.0038111696 -0.0062080524 -0.009108119 0.006242613 0.0040502315 -0.008145238 -0.00075715996 -0.003192454 0.003324939 0.003640301 0.0064390777 -0.010639847 0.0016304331 -0.01145944 0.0049086423 0.0063875075 -0.004108129 0.0017283235 0.009460666 0.0014281691 -0.0027319447 0.0065294765 0.0022421242 -0.003792076 0.0028987199 -0.007822599 -0.0036182492 -0.0025092892 0.0008659597 0.011799166 -0.0016817187 -0.01141898 0.0075800144 0.006840564 -0.00074043334 -0.008444757 -0.0016672752 -0.0032877212 0.0016035879 -0.0024230652 -0.014377902 -0.006183426 0.004560038 0.0018002776 -0.012238298 -0.011486668 -0.002150667 0.0005886421 0.0026979272 -0.00078936573 0.013816496
which 0.26351988 0.32938725 0.14090966 0.12722588 -0.109798394 0.015957192 0.09263638 0.056738783 -0.21461773 -0.24084689 -0.2340614 0.10659795 0.041323274 0.0007704474 0.054203197 0.09340256 -0.15463556 0.09597174 0.18715535 0.2968002 0.08048761 -0.24916828 -0.04186838 0.18881226 0.16541144 0.092876464 0.1624082 0.023444587 0.2734348 -0.052884374 0.2107536 0.07917126 -0.097048454 -0.10172593 -0.092908904 -0.05325222 0.022585053 0.24697313 -0.312053 0.1299211 -0.20347883 -0.15892932 0.05247679 0.020616574 -0.041801266 0.0014247458 0.00075934 -0.01978353 0.01437157 0.006346961 -0.045783278 -0.3588816 0.08671761 0.009858276 -0.4200772 0.039868936 -0.020868732 0.11196831 0.2376184 0.14365998 -0.26850027 0.015976237 -0.24979816 0.0012979782 0.19212773 -0.06443639 -0.094043024 0.30268016 -0.017779982 -0.1920594 0.14041822 0.12810019 -0.056835055 0.02863233 -0.2632797 -0.2631106 -0.07455518 0.07173367 0.25839385 0.041303247 -0.36599666 0.22490107 0.31081727 -0.17197464 -0.22454455 -0.1456001 -0.14630596 0.20786884 0.0701829 -0.37587515 -0.12417488 0.15153043 0.008838426 -0.4808916 -0.5084103 0.10271626 0.0036973965 0.111534685 -0.042458583 0.35002637
that 0.4429145 0.55604684 0.24097912 0.20533724 -0.19754964 0.03857446 0.16421576 0.09308185 -0.3705624 -0.4066233 -0.38400507 0.18649285 0.05864852 0.003252463 0.08635748 0.16292168 -0.261987 0.16715449 0.31287313 0.50049406 0.13938126 -0.4223967 -0.061559025 0.3257639 0.27237853 0.1625056 0.2709146 0.0323168 0.47521573 -0.09061066 0.36343953 0.13508472 -0.15629795 -0.1746364 -0.15806797 -0.096835576 0.027215093 0.4214392 -0.52721864 0.2231754 -0.33810487 -0.2630061 0.09824676 0.042304143 -0.07511057 0.013949722 0.0068173846 -0.02875008 0.020144716 0.0060617565 -0.074924715 -0.61101365 0.15239736 0.012599283 -0.7108927 0.08064004 -0.029088153 0.19021483 0.40386495 0.23421884 -0.44786924 0.027122654 -0.4176735 -0.0047448636 0.32427588 -0.102011845 -0.15481511 0.5174363 -0.0250557 -0.31449553 0.24191257 0.21222422 -0.100309834 0.03935573 -0.43996373 -0.45012906 -0.12412488 0.11608029 0.42531136 0.070275426 -0.61456424 0.38696265 0.5334773 -0.3005835 -0.38126004 -0.24875759 -0.25114945 0.3540753 0.11084761 -0.6395647 -0.21633092 0.25024238 0.02304096 -0.8169956 -0.86153126 0.17504224 0.00419863 0.17930876 -0.07570182 0.60113364
think 0.27816895 0.34149873 0.1530412 0.13403235 -0.124571264 0.021014662 0.09636849 0.056615774 -0.23497069 -0.2553401 -0.24023063 0.11418392 0.034806024 0.0009913442 0.05040322 0.10601019 -0.15860112 0.09767564 0.19676493 0.30962396 0.085574985 -0.26084498 -0.04076923 0.20627174 0.17064932 0.10349119 0.17753398 0.018870488 0.29879156 -0.05597927 0.22905694 0.07942358 -0.10096306 -0.1109706 -0.094360076 -0.05525428 0.01681899 0.26655924 -0.33204076 0.14155796 -0.2075114 -0.17186739 0.06334762 0.020769587 -0.04828175 0.0027526773 0.006237327 -0.013489597 0.01095193 0.009050624 -0.052204646 -0.37984675 0.0908467 0.011864429 -0.43968508 0.042281006 -0.013934707 0.11399365 0.2516051 0.15302853 -0.28442726 0.018562503 -0.26624137 0.0022470457 0.20909904 -0.06424643 -0.09447944 0.32146028 -0.009268864 -0.19710365 0.15480264 0.14089105 -0.05948463 0.022197863 -0.28042582 -0.27957815 -0.07607913 0.079074554 0.27499926 0.038871795 -0.38344425 0.23820843 0.3365472 -0.18296024 -0.24177715 -0.14920089 -0.1606376 0.21976137 0.072720096 -0.40426517 -0.13186297 0.15718874 0.011299448 -0.5085086 -0.54292387 0.10796974 0.010009245 0.117678724 -0.043670584 0.3802731
it 0.513571 0.65193796 0.2808901 0.24328046 -0.22139153 0.044473827 0.18966654 0.11185572 -0.43785465 -0.47383937 -0.4499736 0.21774748 0.074676484 0.0050663115 0.10592611 0.19650072 -0.29892936 0.19055833 0.36655226 0.58528715 0.15957588 -0.4864459 -0.06956996 0.38243762 0.31619948 0.18781252 0.3228316 0.03620676 0.5487442 -0.105324216 0.42750093 0.15227994 -0.19211718 -0.20156525 -0.18521625 -0.10539914 0.035542592 0.49455258 -0.6094731 0.264444 -0.39845726 -0.31188098 0.112688184 0.04894278 -0.086074516 0.011364348 0.007766246 -0.03212363 0.026374035 0.009946236 -0.09508517 -0.7150829 0.17856222 0.014668727 -0.8309505 0.09181067 -0.03618519 0.21562989 0.47613898 0.27900544 -0.5309939 0.02866722 -0.49030024 -0.0061085257 0.38151985 -0.11654999 -0.18574017 0.6014821 -0.02281792 -0.37810454 0.28848886 0.25163653 -0.12007209 0.052259933 -0.5219175 -0.5255066 -0.14226663 0.14284045 0.5044662 0.074431896 -0.7263039 0.4552871 0.61803466 -0.3493074 -0.4547997 -0.28481472 -0.28823826 0.4168892 0.12504306 -0.75572985 -0.2525515 0.29107374 0.029019985 -0.95864457 -1.0088302 0.2017838 0.010904547 0.21395306 -0.08681785 0.7057753
australia 0.03655524 0.047636222 0.019391147 0.016351663 -0.012274943 0.0053653726 0.018461088 0.0104035055 -0.03246393 -0.034674842 -0.03249034 0.01630506 0.009542936 -0.0011561045 0.008553539 0.018920036 -0.020058416 0.018498892 0.025498528 0.047274645 0.0138158295 -0.040320713 -0.0044499687 0.028776368 0.02266375 0.016697146 0.02095361 0.0013814964 0.04056535 -0.012189502 0.027103016 0.011051193 -0.01256424 -0.01367117 -0.016823214 -0.012243625 0.003424605 0.040778957 -0.040811818 0.023899475 -0.030717844 -0.018844754 0.011152601 0.008125032 -0.005973447 0.0035513376 -0.0024179937 -0.0026044883 0.006594561 0.002084215 -0.003906508 -0.05316379 0.014789899 0.00051673246 -0.06578257 0.005856177 0.002116321 0.014551255 0.03834964 0.02181607 -0.038163226 0.0064751445 -0.032197054 0.0022852877 0.028896647 -0.010148789 -0.017076423 0.042525012 0.00031569682 -0.029752046 0.018291093 0.014020504 -0.0036837803 0.003243872 -0.03637905 -0.040675487 -0.005982229 0.008898778 0.040244486 0.009876829 -0.04907354 0.029176822 0.043817297 -0.029018387 -0.03116174 -0.023099972 -0.021985183 0.02678038 0.01177898 -0.056458928 -0.018197607 0.02106308 0.0022409395 -0.06747752 -0.07081763 0.012885856 -0.0030856223 0.013968407 -0.0049845157 0.05123805
do 0.3907516 0.48393744 0.21120343 0.17857327 -0.17495753 0.03433275 0.14276905 0.08343798 -0.32378086 -0.36020154 -0.34230787 0.15855548 0.05838877 0.0056835474 0.0763869 0.14186138 -0.22744891 0.14783503 0.27348396 0.4429339 0.11615983 -0.36817425 -0.053709507 0.29165417 0.23676053 0.13930899 0.23951799 0.026005931 0.4159156 -0.0772055 0.31981713 0.11818602 -0.14384256 -0.15446751 -0.1404958 -0.07715501 0.033043697 0.37299526 -0.4590642 0.19955577 -0.29599422 -0.23140357 0.082603075 0.03421137 -0.068535075 0.012853317 0.009510595 -0.020953663 0.025382534 0.005242796 -0.07173717 -0.53869176 0.12616733 0.012240872 -0.6191611 0.07030327 -0.022914317 0.16768412 0.35604748 0.21218 -0.39494166 0.025830142 -0.36202452 0.0012916 0.28732455 -0.09191335 -0.13721323 0.45374465 -0.02259825 -0.28391305 0.21903548 0.19147387 -0.081639215 0.035202958 -0.39256465 -0.3924451 -0.1084738 0.10035367 0.37468913 0.055153746 -0.53722334 0.3385114 0.46339113 -0.25895956 -0.33633396 -0.21778335 -0.22173458 0.3094879 0.096792415 -0.560776 -0.18571606 0.22511828 0.022111803 -0.71237427 -0.75342757 0.14758237 0.007983007 0.16474807 -0.066340834 0.5269791
still 0.12767686 0.16307916 0.0739613 0.06270661 -0.059441604 0.0074472395 0.043930046 0.029980924 -0.104444526 -0.1166141 -0.10701525 0.054071724 0.013497668 0.005328288 0.022633618 0.051468696 -0.07220792 0.051329423 0.08996244 0.14066187 0.04222723 -0.12490863 -0.0139159225 0.09944063 0.08043033 0.041713566 0.07695383 0.009316255 0.13580126 -0.024915176 0.10467207 0.036785904 -0.0452313 -0.055314206 -0.04368169 -0.03104835 0.006944579 0.12293857 -0.14842181 0.06769194 -0.1014526 -0.08116575 0.023470484 0.011422021 -0.022396786 0.004323587 0.004601558 -0.012508304 0.0036183984 0.004381027 -0.025022062 -0.17408931 0.04376004 0.0020653612 -0.20413774 0.024411894 -0.011884485 0.05760733 0.12068032 0.06350089 -0.1260344 0.009145209 -0.12455503 0.0024340644 0.09137571 -0.026674185 -0.048469603 0.15095815 -0.0029171258 -0.08773722 0.072454125 0.059707075 -0.031058455 0.010455659 -0.12903847 -0.12846413 -0.039315976 0.03598146 0.12905349 0.02185789 -0.18117775 0.108573504 0.15318257 -0.08910314 -0.11257617 -0.06844004 -0.07271288 0.10239836 0.035957586 -0.1859859 -0.06649931 0.0705383 0.0085939 -0.23279306 -0.24475835 0.04702377 0.005838681 0.050782282 -0.018985353 0.17054491
talk 0.07345871 0.09454704 0.041657154 0.03404292 -0.029082954 0.01000321 0.02526301 0.015677761 -0.064978704 -0.06902378 -0.065454654 0.034634735 0.00727607 0.0034174342 0.010633762 0.033002056 -0.041945253 0.027360052 0.05005754 0.0892403 0.019486528 -0.068427026 -0.013307629 0.058652174 0.050710235 0.029022459 0.04591575 0.0077403532 0.07837413 -0.017397065 0.06336867 0.018402737 -0.022391083 -0.029132994 -0.031855054 -0.019593315 0.003327334 0.07332573 -0.0890244 0.037990965 -0.06286964 -0.048006393 0.014273616 0.003998514 -0.015418586 -0.0015424266 0.002234911 -0.004554504 0.00040390136 -0.0007847686 -0.01118022 -0.10954917 0.023211895 0.005620717 -0.1197554 0.013178802 -0.0045560217 0.035096157 0.06887601 0.042024955 -0.08137737 0.0032716442 -0.0710156 -0.0027680518 0.051532064 -0.020179251 -0.028814455 0.08695432 -0.00484871 -0.05916171 0.044960942 0.03436954 -0.019403446 0.00663571 -0.073599406 -0.075250395 -0.02110603 0.017732706 0.074552976 0.008921862 -0.10676409 0.06334651 0.0941906 -0.05296759 -0.067772955 -0.041039813 -0.042873524 0.06151841 0.023041269 -0.1121205 -0.039664727 0.04716904 -0.0010220481 -0.14112775 -0.15115848 0.02494217 0.0026995807 0.03599683 -0.0117577305 0.10595507
not 0.32499155 0.41242233 0.18141668 0.15778178 -0.13889381 0.030313227 0.118587196 0.0641157 -0.27693483 -0.29615262 -0.28898934 0.13463272 0.050110955 0.00021562741 0.06501092 0.12415615 -0.18885314 0.12305644 0.22943945 0.37669042 0.100672185 -0.31116498 -0.049323633 0.24292216 0.19931288 0.116740696 0.20625979 0.02191041 0.3540911 -0.06990411 0.26788774 0.09916731 -0.11703584 -0.12891379 -0.11518772 -0.06987296 0.021166865 0.31628874 -0.3915659 0.16625386 -0.24868448 -0.19583799 0.072969295 0.026131736 -0.058711752 0.0109687345 0.008836677 -0.018070677 0.020692231 0.0025533247 -0.05993177 -0.453931 0.10684306 0.016370522 -0.5295157 0.051852405 -0.025321424 0.14329341 0.29612762 0.17723137 -0.33104742 0.018087529 -0.30876946 -0.0059064184 0.24773027 -0.07980569 -0.11898664 0.37701008 -0.010752748 -0.23263189 0.18205176 0.16477276 -0.072724134 0.02679026 -0.3277928 -0.3335375 -0.08658862 0.092672065 0.3174426 0.052232973 -0.45559955 0.2912898 0.39768603 -0.22368969 -0.28270617 -0.18318291 -0.18153206 0.26423827 0.084399916 -0.47792494 -0.16132751 0.181416 0.015557411 -0.6058381 -0.64179313 0.12933935 0.006001497 0.13776329 -0.05571444 0.4437688
really 0.3040039 0.3731707 0.16245967 0.13854668 -0.12564333 0.023971839 0.10813154 0.059749536 -0.25044382 -0.2779756 -0.26032 0.12286684 0.03791092 -0.0005642923 0.06050155 0.10978713 -0.17798933 0.10765354 0.21040408 0.33973745 0.088401996 -0.2850575 -0.044359565 0.22224267 0.18063089 0.10389098 0.18555455 0.020123294 0.31739923 -0.06732735 0.24739294 0.09272789 -0.110119514 -0.11997997 -0.1040381 -0.061211575 0.01958761 0.28738046 -0.35499233 0.14776382 -0.23224695 -0.18041928 0.0626288 0.023301778 -0.04965541 0.003164831 0.0028664488 -0.016927121 0.016818589 0.0039210804 -0.050377205 -0.41749147 0.09825433 0.007958721 -0.48103613 0.05408947 -0.019902041 0.12818637 0.2750042 0.15693443 -0.30133754 0.013857263 -0.28131616 0.00282401 0.2198845 -0.07136972 -0.109517165 0.35059857 -0.018196335 -0.21583697 0.17089802 0.14192225 -0.06381554 0.030812956 -0.30258986 -0.3055617 -0.08228518 0.083196506 0.28903252 0.045112967 -0.42121956 0.2596932 0.355968 -0.20405963 -0.26198456 -0.16442794 -0.17335714 0.23466933 0.07422288 -0.42990577 -0.14562912 0.16842648 0.014178928 -0.55258006 -0.57945496 0.11287701 0.0012010301 0.12741642 -0.046737477 0.40792215
interactions 0.009234532 0.007853139 0.005426586 0.0036149397 -0.0064915493 0.0023523727 0.0053324713 -0.0004635685 -0.0067335577 -0.0034506656 -0.0038410681 -0.0012966085 0.0028811807 0.00033939886 0.004556365 -0.0025054472 -0.007029923 0.0018454902 0.008854006 0.012245774 0.0013757503 -0.009150638 -0.0003876448 0.0021044493 -0.0005919783 -0.0018211985 0.008845174 0.0016200508 0.0048812954 1.9611736e-05 0.008679339 0.0017545259 -0.004412978 -0.0075399354 0.0023433547 -0.0050103767 0.0050025764 0.0044357264 -0.007400513 -0.00053066015 -0.00025187284 -0.0011034613 0.0060288142 -0.0036063732 -0.0015274768 0.003841953 0.0048193294 0.0025680594 0.002504911 -0.004404184 -0.002267744 -0.005821733 0.0023636231 -0.0034199958 -0.013810851 -0.0001558498 -0.00026275104 0.0003414833 0.008745317 0.0008696334 -0.0046601035 0.0040735486 -0.0071729254 0.003125825 0.0049434104 -0.005076457 -0.0034376548 0.011259795 0.0023207227 -0.0091988435 0.005643768 0.004458093 -0.0029445612 -0.0024788955 -0.0056915623 -0.0059408057 -0.0045021875 0.0032024926 0.0017928717 0.002426645 -0.0042913365 0.008123886 0.011520251 -0.006963726 -0.010101485 -0.0064838794 -0.0019701372 0.00643686 0.0051853443 -0.006555724 -0.0019688595 -0.00078293966 0.00048396472 -0.009975981 -0.010808304 0.0033832374 -0.0013544038 0.003032884 -0.00027077884 0.0095030125
are 0.39067313 0.48912627 0.20966472 0.17890514 -0.17263012 0.032580208 0.14541672 0.08303179 -0.33253145 -0.35768917 -0.34047872 0.15886687 0.05118916 0.004726499 0.08307435 0.14494605 -0.22516502 0.14869595 0.27911946 0.4464643 0.11652345 -0.37132815 -0.061207365 0.29726404 0.23850475 0.14173411 0.24486262 0.024171459 0.41950658 -0.0859146 0.3183773 0.11746273 -0.14183085 -0.15453973 -0.13461347 -0.07927613 0.023274546 0.37651813 -0.46877915 0.19629654 -0.29639903 -0.2393075 0.08338622 0.031796616 -0.069865726 0.013230396 0.003431729 -0.028074658 0.020712767 0.0066968887 -0.0727758 -0.54440767 0.13360126 0.009177516 -0.62942624 0.06725862 -0.029943349 0.16171008 0.3583455 0.20858398 -0.40496898 0.021472178 -0.37098157 -0.002406178 0.2897406 -0.08586671 -0.14019853 0.45703962 -0.017719299 -0.28821087 0.21458995 0.19614783 -0.08627902 0.032761965 -0.39308256 -0.3945782 -0.104373276 0.10610867 0.3876513 0.0643969 -0.5454704 0.3474609 0.47442976 -0.26925808 -0.3383183 -0.22035204 -0.21500158 0.31241402 0.101475194 -0.5673985 -0.19270536 0.22781353 0.01735458 -0.7252041 -0.7625058 0.15039626 0.0044128797 0.16191553 -0.066422574 0.52886015
usually 0.07549829 0.08882417 0.037866704 0.037360746 -0.029040996 0.0011618771 0.025789361 0.015616579 -0.06467877 -0.068389826 -0.06685432 0.028533379 0.010965582 0.0026424646 0.018081225 0.027673142 -0.048070908 0.026692182 0.049869042 0.08424236 0.023565194 -0.06774869 -0.0067471717 0.055626377 0.050036747 0.025627254 0.041937623 0.0066101276 0.076046735 -0.014096714 0.0647593 0.018884495 -0.027866656 -0.027983045 -0.022438414 -0.019226756 0.0022104087 0.07560363 -0.08476718 0.033686362 -0.060903464 -0.04493723 0.018639088 0.00584779 -0.015052211 -0.00044809995 0.0058863186 -0.0036261505 0.000602182 -0.00019246245 -0.011293067 -0.10254255 0.024377061 0.003524797 -0.122831374 0.010397055 -0.0062410864 0.03031385 0.068853356 0.04279388 -0.07740164 0.0067217564 -0.06991015 -0.0016161578 0.057791434 -0.015540226 -0.028288092 0.08941848 -0.003972187 -0.04974978 0.045066606 0.033052295 -0.01904254 0.0051596146 -0.071709946 -0.07240889 -0.016920598 0.025219813 0.076640114 0.009477375 -0.1011079 0.0666881 0.08962416 -0.0532096 -0.06222786 -0.039082494 -0.046201218 0.061018635 0.019424796 -0.11127847 -0.03444342 0.041846383 0.008623187 -0.14224564 -0.14368136 0.033534624 0.005520932 0.033120017 -0.014073676 0.10200982
short 0.020814486 0.022597618 0.009247083 0.0069610216 -0.0035371133 0.0063806567 0.0077610817 0.004424857 -0.012359412 -0.0136373155 -0.015133808 0.003149407 0.0011862377 0.0039757052 0.00027751343 0.010369659 -0.015468579 0.0040027807 0.012773181 0.023602782 0.0011780787 -0.019601475 -0.0031637987 0.014216138 0.008265748 0.0024321324 0.013366468 -0.00048600198 0.024037184 -0.0022946422 0.015592384 0.010116327 -0.007994723 -0.008784916 -0.007915727 -0.005899896 0.0015470127 0.015514979 -0.023524927 0.013210803 -0.0132826315 -0.013055392 0.008726684 0.0062141498 -0.0033207694 0.0012959627 -0.0033742243 0.0028578867 -0.0038703838 0.0014746033 -0.007111348 -0.026645951 0.00938179 0.00096982886 -0.028626041 -0.00032846056 0.00015570875 0.0058397157 0.015966931 0.014425743 -0.023042368 0.002488971 -0.01592149 0.0012910416 0.011080953 0.00019256432 -0.0016557964 0.020019757 -0.0056776293 -0.015335893 0.005984324 0.009240487 -0.0073479176 0.0044210395 -0.015325684 -0.0166374 -0.0059809303 0.0017919169 0.013825537 0.0009986403 -0.024313524 0.018641539 0.025803205 -0.011895224 -0.015441192 -0.009483618 -0.014776152 0.014337583 -0.00019185456 -0.023562023 -0.007567442 0.011736948 0.0043579773 -0.035855863 -0.033755597 0.0032554765 -0.003721618 0.0037029611 0.00020760074 0.030326298
lived 0.02926034 0.03055009 0.016217386 0.01743544 -0.00968799 0.0057656267 0.012533784 0.0075364113 -0.025736932 -0.021958109 -0.022981 0.00871419 0.00579684 -0.00078840135 0.0036745637 0.009303922 -0.017726254 0.0058746426 0.017975954 0.03627208 0.008089875 -0.022581682 -0.0067142923 0.022523679 0.021660352 0.01008181 0.015443998 -0.0006805131 0.032027982 -0.009062625 0.024315104 0.008146267 -0.011170519 -0.008344382 -0.010449482 -0.010346386 0.0003021494 0.030959785 -0.03386855 0.010933556 -0.02058885 -0.01628082 0.009129631 -0.00028219144 -0.0014652187 0.005526503 0.0010579487 0.0029546209 -0.0026871047 0.0020054155 -0.0037450644 -0.037420142 0.006282414 0.00021361063 -0.043273233 0.005874199 0.002453981 0.011864134 0.022368887 0.0114471875 -0.02513199 -0.00026350224 -0.025055002 -0.0022131647 0.02035121 -0.007693925 -0.0066319937 0.036205955 -0.0036863573 -0.020022782 0.01959339 0.017539464 -0.004017292 0.0062290593 -0.02326807 -0.031642765 -0.0123519385 0.010130324 0.030588837 0.007327172 -0.04283639 0.02678408 0.029193228 -0.016597375 -0.020674258 -0.014729001 -0.018253213 0.021012345 0.011023502 -0.044035688 -0.009289069 0.019671636 0.0014527448 -0.04673974 -0.050933182 0.015643813 0.0018314767 0.015284039 -0.0007307557 0.03715043
but 0.47031477 0.5956745 0.25974724 0.22586083 -0.21126293 0.037733916 0.17675494 0.09768468 -0.3955951 -0.43697834 -0.41316417 0.19756147 0.064967684 -0.0017562769 0.09475178 0.17997935 -0.28136584 0.17614621 0.33688894 0.53373617 0.14272076 -0.45051822 -0.07266221 0.35510182 0.28777027 0.16554673 0.2954356 0.038974993 0.5032004 -0.10286195 0.38652152 0.13622275 -0.17227054 -0.18876886 -0.16474907 -0.1032222 0.034393344 0.44958052 -0.5568243 0.23735435 -0.35620916 -0.28737015 0.099983215 0.03827002 -0.07465937 0.0132598495 0.0026909271 -0.029106822 0.027525509 0.007878836 -0.08595407 -0.6607229 0.15785998 0.015734727 -0.7610074 0.084290616 -0.036787152 0.20083205 0.4359595 0.25328085 -0.48603112 0.030717429 -0.44860387 -0.0065359157 0.35157707 -0.11496298 -0.16458483 0.5504724 -0.017514482 -0.344034 0.25981113 0.23551229 -0.10784834 0.046334326 -0.47637534 -0.47926825 -0.13453186 0.13043922 0.4605655 0.07358465 -0.65840226 0.41372395 0.57322156 -0.32097858 -0.41524032 -0.26691288 -0.26374796 0.37757084 0.11866513 -0.68342996 -0.23214738 0.27210748 0.025547192 -0.8751602 -0.9225745 0.17953104 0.013074957 0.19031082 -0.07693252 0.6394788
s 0.3979952 0.5066643 0.22304739 0.19150929 -0.17947352 0.029064365 0.15289462 0.08829723 -0.34044892 -0.37115768 -0.35771498 0.16820386 0.059503905 -0.0011616606 0.07994125 0.14775148 -0.23137511 0.1538597 0.29154462 0.45388237 0.11936106 -0.38726506 -0.05433733 0.30481818 0.24946581 0.14892888 0.25727957 0.028426642 0.43042445 -0.08150705 0.33169007 0.12147107 -0.1514605 -0.16142176 -0.1374768 -0.088232175 0.025053008 0.38131633 -0.4822219 0.20316187 -0.30545858 -0.24635173 0.08717637 0.030632822 -0.07030595 0.00836585 0.0030214533 -0.030212976 0.02428277 0.0067074634 -0.06885654 -0.56356084 0.13342147 0.011833968 -0.64236295 0.07355482 -0.031198991 0.16772512 0.3705224 0.21294193 -0.41224948 0.023511836 -0.3849951 0.00030058544 0.29519325 -0.095627844 -0.13747363 0.4687623 -0.01851946 -0.28887612 0.21942759 0.20183161 -0.09000903 0.041849785 -0.40683383 -0.41119167 -0.11322295 0.10546761 0.39877185 0.059732165 -0.5612347 0.35141256 0.48791072 -0.27084276 -0.34976047 -0.22324882 -0.22640921 0.32486057 0.10296785 -0.583836 -0.19580327 0.2277784 0.021851221 -0.7429165 -0.7815387 0.15883465 0.01002874 0.1627403 -0.06416473 0.5464468
fascinating 0.010831919 0.012433131 0.0005039217 0.0006931594 -0.007092732 -0.0025456205 0.001470302 0.00082437607 -0.0042574774 -0.006094609 -0.010206149 -0.0012411095 0.003706268 1.6111484e-05 0.0062642093 -0.001043185 -0.0025705409 0.0039223805 0.004803418 0.008389885 0.004122797 -0.0050235386 -0.00217685 0.0025771426 0.0031867116 -0.0017168209 0.0039489768 -0.0008754746 0.003964478 0.0011088762 0.0068121767 0.0046847593 -0.0037943833 -0.0033147144 -0.0037979032 -0.005968169 -0.0045601283 0.007885242 -0.010844673 0.006552248 -0.006184915 -0.0009609778 -0.0031185364 -0.002320205 -0.004699551 0.00051839254 -0.0046337824 -0.0029014605 0.0012732834 0.0015422287 0.00072809536 -0.0065823975 0.006114272 -0.00014782755 -0.014626838 -0.0038221371 -0.0033767773 -0.0023030343 0.008812073 0.0010245673 -0.0073918444 -0.00010061006 -0.008228911 0.0029775512 0.0046820985 0.0017605786 -0.004829983 0.009059766 -0.004545897 -0.0012055449 5.2384537e-05 0.0072022057 -0.004747851 0.003879657 -0.0027905935 -0.009920785 0.0010365337 0.002259741 0.0023601367 0.0034863874 -0.0041693514 0.00057473005 0.0050725187 -0.0009349656 -0.0022336063 -0.0062711597 -0.0028502133 0.008585144 0.00063729 -0.011018468 -0.0061383513 0.0066464203 -0.0033114888 -0.0077382084 -0.012756024 0.0060146195 0.0042803814 -0.00026968235 -0.0039327596 0.008507787
learn 0.059834074 0.07179081 0.030042049 0.023208981 -0.02122203 0.0024792878 0.02643386 0.0138880145 -0.047976967 -0.053184047 -0.055265367 0.027054865 0.010836949 0.0047649485 0.01471482 0.024699034 -0.032729004 0.02027869 0.042666927 0.06536695 0.020753874 -0.060617413 -0.009751674 0.043537248 0.033033375 0.02603187 0.037016977 0.00043746384 0.062715665 -0.011439922 0.049752805 0.021389375 -0.020520588 -0.018412128 -0.017893946 -0.013496209 -0.0002778519 0.05530396 -0.066038564 0.029247148 -0.04248111 -0.034126367 0.017879104 0.003882742 -0.0137893595 -0.0038378458 0.0007156986 -0.0022126853 -0.0014659892 -0.0018252077 -0.013382795 -0.086372286 0.023021374 -0.00024097302 -0.0987484 0.011791669 -0.00093842944 0.021592775 0.057553675 0.034461163 -0.064127654 0.005928315 -0.056756638 -0.004720388 0.04886058 -0.014720431 -0.016956652 0.0695742 -0.0052635586 -0.038091168 0.030149253 0.029974157 -0.00835696 0.0076939133 -0.062114976 -0.062959135 -0.017608399 0.012364663 0.054931045 0.010147454 -0.087835856 0.049328864 0.07145308 -0.044066586 -0.047895182 -0.031700253 -0.03791549 0.051653218 0.014523729 -0.08868923 -0.025211876 0.034363665 0.0025827507 -0.112717524 -0.11060397 0.027606457 0.005216868 0.021092197 -0.012627301 0.07782377
coming 0.07482288 0.09525189 0.04284086 0.03431024 -0.029594738 0.001373671 0.033867303 0.017553495 -0.06793865 -0.07330547 -0.070545144 0.02885632 0.015146316 0.0043401727 0.01459149 0.026456319 -0.04946484 0.032697592 0.057615783 0.08512792 0.019452557 -0.07881502 -0.009218526 0.054361634 0.047371574 0.024937518 0.04996141 0.006503442 0.08765461 -0.016625922 0.065750495 0.021574304 -0.029903658 -0.03414118 -0.0315243 -0.014135761 0.0072124302 0.07957035 -0.09331137 0.0408146 -0.06268618 -0.048898242 0.021489408 0.008044682 -0.011420376 0.0037838686 -0.0025372035 -0.0063769394 0.0060391524 0.0018447561 -0.017987244 -0.11266604 0.03029753 0.0019232088 -0.12383621 0.014502202 -0.0005724286 0.034018684 0.06836206 0.043249305 -0.083278805 0.0017055246 -0.07330569 -0.004144425 0.056753714 -0.01659829 -0.022965834 0.0956123 -0.0043357513 -0.059659038 0.04308858 0.036635887 -0.02214463 0.0035473297 -0.081599444 -0.082784094 -0.026313871 0.019577596 0.07838013 0.0073581673 -0.11502287 0.06862414 0.098279096 -0.05092575 -0.065599725 -0.043906227 -0.044190574 0.061366882 0.01646559 -0.11021038 -0.03869758 0.041344255 0.006360183 -0.1424269 -0.14994286 0.032291118 0.0017321382 0.031052325 -0.009429365 0.10525252
from 0.39822862 0.49759945 0.20995565 0.18016078 -0.16885893 0.025463386 0.14791758 0.08062541 -0.32787853 -0.36634684 -0.34880343 0.16735281 0.05972303 -0.0024747364 0.07860513 0.15253228 -0.23265205 0.14268146 0.27688843 0.4512775 0.121337615 -0.37226927 -0.05346999 0.29185548 0.24786294 0.14463449 0.2479363 0.029090706 0.4243361 -0.07799125 0.32551664 0.12040197 -0.14091787 -0.15406442 -0.142839 -0.07982556 0.032654423 0.37817785 -0.46328348 0.2018018 -0.30245614 -0.2369776 0.082827844 0.03144248 -0.066113785 0.006843609 0.00407065 -0.022295354 0.024359547 0.01195309 -0.07444398 -0.55365497 0.1319559 0.013515862 -0.6284848 0.065184034 -0.028822618 0.16586354 0.35747218 0.20963414 -0.40770808 0.023544207 -0.37540114 -0.0047923834 0.29394165 -0.09101802 -0.13311474 0.45901567 -0.019255852 -0.28378 0.22431327 0.1965466 -0.08305176 0.039986383 -0.39529398 -0.4047405 -0.10918285 0.1101621 0.38324568 0.06118109 -0.55001026 0.34766814 0.47092506 -0.2678343 -0.338721 -0.22358361 -0.21896097 0.31853783 0.102881186 -0.57106113 -0.19560336 0.22731067 0.016414154 -0.7249251 -0.7627822 0.14946723 0.0061306297 0.15752113 -0.06955517 0.53115255
and 0.74521476 0.93005216 0.4076393 0.3478021 -0.32968715 0.05586751 0.27044293 0.1546086 -0.61857814 -0.683875 -0.6485313 0.3080618 0.10722997 0.0011930129 0.14492501 0.27593777 -0.43072763 0.27672306 0.53083193 0.84172124 0.22451395 -0.7023604 -0.110392414 0.5550657 0.45776218 0.2645346 0.4650705 0.05317317 0.7871272 -0.15083584 0.61259556 0.21660985 -0.26510116 -0.2898442 -0.2605177 -0.1566206 0.051812954 0.71079934 -0.8770782 0.37225524 -0.5614244 -0.45025277 0.16334726 0.060391538 -0.12008605 0.01323795 0.009542664 -0.043492593 0.04572625 0.017861664 -0.12686661 -1.0356469 0.24420704 0.023558604 -1.1885849 0.12768261 -0.053641062 0.31812584 0.68147457 0.40070787 -0.7547639 0.043932717 -0.6985033 -0.0034856973 0.5526438 -0.16950029 -0.26190984 0.859017 -0.03589371 -0.53385675 0.41489658 0.36296952 -0.1651439 0.06606794 -0.74338824 -0.75319123 -0.1987767 0.1968843 0.72188526 0.115778714 -1.0429715 0.653247 0.89416456 -0.5035707 -0.65055 -0.41585442 -0.41502222 0.59135807 0.19094972 -1.0812278 -0.36118504 0.421994 0.038915932 -1.3667994 -1.4400547 0.28080547 0.014572682 0.30387735 -0.12409812 1.0082047
matters 0.002018044 -0.007476368 -0.0044517126 -0.0038327514 -0.000545916 -0.00055815943 0.00030702035 -0.005036054 0.005977456 0.0016603044 -0.00014281123 -0.0036004812 0.0014490815 -0.0020862785 -0.0005327398 -0.002881808 0.0059515573 -0.0011789758 -0.0033635083 0.00071908307 0.0036947418 -0.0016649523 -0.0041404055 -0.0056258356 -0.005469895 -0.0054152836 -0.005488967 0.004176473 -0.0021586847 0.0039815777 0.000462053 0.004160287 0.002323294 0.0028467984 0.00013294014 -0.0042483592 0.0042477446 -0.0031553619 0.0072624064 -0.00082205347 0.0029551564 0.00036423266 -0.0029465589 0.0048204265 0.0020241758 0.005018197 0.004693282 -0.0038022697 -0.0038421473 -0.0005311538 0.0018626666 0.0027522983 -0.0024590725 0.0017356622 0.005417323 -0.00459088 0.0028265463 0.0019251568 -0.004135228 -0.0038846417 -0.0022028969 0.001751487 -0.0010401937 0.0012641634 0.0030712949 0.0018444977 0.00065084506 0.00013039196 0.0042458023 0.0018105668 -0.0045136656 -0.0007874927 0.002443761 0.0013101697 0.003559699 -0.00036032146 0.001383211 0.0007052054 -0.00051282084 0.00302163 0.0027823425 -0.0030796234 0.0007813233 0.0059900396 0.0050053373 0.000817423 0.003544678 -0.0023767436 -0.0033848607 -0.0017315443 -0.003127715 0.0020075273 -0.00014427437 0.0016457615 0.00032809528 0.00042901203 0.0042228345 -0.0027774146 -0.0005321565 -0.00018003222
them 0.26006263 0.32593033 0.14567435 0.117363945 -0.11236225 0.019334514 0.09666572 0.056185547 -0.21425767 -0.24282832 -0.22836399 0.10358229 0.041152254 -0.00015134415 0.051753283 0.09931985 -0.15070637 0.096867554 0.18122832 0.29489166 0.078462616 -0.24653134 -0.039245516 0.1885495 0.1612476 0.093358375 0.16156508 0.01825905 0.27822688 -0.058673713 0.21669714 0.073751844 -0.093008734 -0.09901434 -0.093892366 -0.05143034 0.015573852 0.24985617 -0.30762976 0.13587643 -0.1983529 -0.15190583 0.058799755 0.018768795 -0.046105925 0.002168303 0.0007932789 -0.015445191 0.011543139 0.0028899673 -0.042255133 -0.35617915 0.08231899 0.01366082 -0.4154561 0.04290741 -0.015187065 0.10966442 0.23286618 0.13852015 -0.26613745 0.01118044 -0.24182802 0.0030396362 0.19693165 -0.06267358 -0.09222003 0.2973908 -0.01458428 -0.18218786 0.14628375 0.13113242 -0.05984581 0.021930624 -0.2663723 -0.26579827 -0.07232899 0.07135002 0.24817796 0.03828721 -0.36331442 0.2225048 0.3164843 -0.17904894 -0.22427483 -0.14596452 -0.14326803 0.20401554 0.0618741 -0.37272114 -0.125137 0.14911917 0.011137967 -0.4779236 -0.50401276 0.10222862 0.007821672 0.10443586 -0.038407985 0.35664055
yea 0.094551146 0.12393839 0.05405571 0.04859925 -0.041659445 0.0069342623 0.03433618 0.02436038 -0.08291095 -0.085781254 -0.08437049 0.035775855 0.01587703 -0.0035377748 0.021447366 0.03884857 -0.054378428 0.03934222 0.07299193 0.10945266 0.027667312 -0.09366297 -0.018947002 0.06809751 0.055093873 0.033680033 0.06059923 0.007717116 0.10273942 -0.019638313 0.08253071 0.032134548 -0.038225643 -0.03995442 -0.03476447 -0.024256872 0.003362592 0.0967546 -0.11394721 0.049312048 -0.07383086 -0.053177092 0.02459147 0.011596121 -0.018642403 0.0011772604 0.002767509 -0.0030778425 0.0010623508 0.002543419 -0.017651679 -0.13675283 0.030027505 0.008098309 -0.1533088 0.019343229 -0.0017411663 0.03789879 0.08456433 0.04709442 -0.09702708 0.0063821804 -0.09121847 0.0015624607 0.067699894 -0.025680926 -0.03047175 0.1113731 -0.007117875 -0.06442752 0.053136874 0.04990135 -0.022400156 0.0048242924 -0.09991722 -0.09997728 -0.02843522 0.029273788 0.09011523 0.011770572 -0.13826975 0.08801008 0.11443125 -0.06351205 -0.083514884 -0.054764207 -0.057284463 0.07973651 0.026680551 -0.13733111 -0.0448772 0.053606562 0.009877782 -0.1728439 -0.1885452 0.03999167 -0.00041320393 0.04161341 -0.013824144 0.13516779
me 0.38236314 0.47752842 0.20237076 0.1816787 -0.17090014 0.03372613 0.1423139 0.07749759 -0.31761408 -0.34738415 -0.3368498 0.15318404 0.0540576 -0.0014252248 0.080371656 0.14075842 -0.22305636 0.14113072 0.2683973 0.43310332 0.1164779 -0.35935113 -0.050749592 0.28582862 0.2286062 0.1401933 0.23551206 0.03148953 0.39829537 -0.08009903 0.31505337 0.10901257 -0.13788791 -0.15296774 -0.13082246 -0.07791104 0.023096848 0.362969 -0.44849464 0.18999428 -0.28977722 -0.22962934 0.078354925 0.030581022 -0.06317943 0.0074787596 0.0056807 -0.025412463 0.024867427 0.0041496377 -0.069454 -0.5315445 0.13094424 0.01861423 -0.60804254 0.06339758 -0.025061376 0.15631242 0.34939185 0.20653354 -0.38575575 0.017619334 -0.35563043 0.0029158236 0.28366214 -0.0899512 -0.13748904 0.44093618 -0.019645184 -0.27148622 0.21190903 0.19007029 -0.08494463 0.03615062 -0.3866619 -0.38790375 -0.10540261 0.09851212 0.364572 0.05648764 -0.5287993 0.3339234 0.45589793 -0.2548165 -0.3339206 -0.20923725 -0.21787508 0.2995298 0.09129838 -0.5509277 -0.18924928 0.21573864 0.01932743 -0.7036719 -0.7384284 0.15003623 0.0037412113 0.15620236 -0.060401987 0.51983
too 0.3358462 0.42215416 0.17805628 0.15748899 -0.14982802 0.02490207 0.11947371 0.07110183 -0.27773502 -0.30798316 -0.2940905 0.14253849 0.0442502 -0.0017508919 0.06317285 0.1279748 -0.19763851 0.1196081 0.24209097 0.3848971 0.10688037 -0.31537905 -0.053070392 0.2526004 0.21075132 0.12081231 0.21371427 0.025875438 0.3518851 -0.0729474 0.27070698 0.096626095 -0.12407434 -0.12923686 -0.116790764 -0.073391944 0.029487945 0.32533953 -0.39446548 0.1723931 -0.2525142 -0.20707698 0.07465752 0.03300075 -0.056502767 0.006848829 0.0044951956 -0.02344005 0.019818248 0.001878582 -0.059033744 -0.46173885 0.11619249 0.0153414905 -0.53581196 0.05561066 -0.01946047 0.13700615 0.3059891 0.1817171 -0.33759066 0.017648125 -0.31938112 9.672305e-06 0.2450044 -0.076469764 -0.1167868 0.3840364 -0.010441218 -0.24662068 0.19028677 0.16538294 -0.07538777 0.028340446 -0.33960316 -0.34353477 -0.08691002 0.08719887 0.32710457 0.050880212 -0.47372115 0.287565 0.405374 -0.22858502 -0.29469025 -0.19129473 -0.18960944 0.2689766 0.079563096 -0.48311147 -0.16793458 0.18636927 0.016731234 -0.612077 -0.65320796 0.13257104 0.005847356 0.13852963 -0.056222383 0.4537754
feel 0.14732988 0.19010708 0.08312559 0.06940181 -0.0643469 0.010866563 0.057973493 0.035095416 -0.12176665 -0.13723172 -0.13072677 0.05911707 0.020824995 0.005080384 0.026463376 0.053910155 -0.091249846 0.053818107 0.103664316 0.16897155 0.046678677 -0.14288281 -0.024666518 0.11446985 0.096572496 0.051797464 0.08895749 0.010719974 0.16159286 -0.02657453 0.12550987 0.04604268 -0.05056205 -0.06268344 -0.053446308 -0.034659285 0.015263228 0.1414261 -0.17232943 0.079017 -0.11080828 -0.09265588 0.029738404 0.013500262 -0.021664746 0.0073970645 -0.00035340906 -0.011991386 0.012256534 0.005928161 -0.029771142 -0.21073055 0.04540997 0.006931341 -0.23492898 0.027321 -0.007650987 0.0601161 0.13480106 0.08300932 -0.15158607 0.006437585 -0.14061357 -0.0006996107 0.114158586 -0.032989576 -0.052539773 0.17753269 -0.003811235 -0.10531414 0.08783644 0.075344846 -0.031780023 0.009372136 -0.15332736 -0.14881526 -0.04397141 0.038146514 0.14025228 0.021124138 -0.2085502 0.12830776 0.17455809 -0.10555637 -0.12563191 -0.07933343 -0.086922154 0.11728865 0.035297118 -0.21538785 -0.07316497 0.08676819 0.012170383 -0.2718716 -0.28572574 0.0535444 -0.001346937 0.059857443 -0.029997136 0.20773406
like 0.43726155 0.5508993 0.24078515 0.20763841 -0.19316974 0.036375917 0.1661521 0.09295987 -0.37366876 -0.39793658 -0.3798519 0.1797316 0.0569644 0.0058690603 0.09039477 0.16783795 -0.25920013 0.16024266 0.30663165 0.5025358 0.1347383 -0.41295707 -0.062401544 0.32927063 0.27450022 0.1609581 0.27222115 0.028348913 0.4695589 -0.09593202 0.35767633 0.12642807 -0.1537561 -0.17308281 -0.15396014 -0.08852548 0.027919156 0.42125657 -0.5215391 0.2194944 -0.33487684 -0.2671111 0.099903144 0.036512766 -0.07808693 0.007283347 0.008718945 -0.022692442 0.025491826 0.007971178 -0.0742086 -0.61159295 0.14921072 0.013372884 -0.6995527 0.07761265 -0.031289037 0.18864807 0.40442798 0.23901057 -0.44706917 0.028546937 -0.41204906 0.0019495928 0.3273732 -0.106091425 -0.15867388 0.5133484 -0.016894735 -0.32118294 0.2405274 0.21030849 -0.101891376 0.042363994 -0.4475103 -0.44911867 -0.11944845 0.121757336 0.42992648 0.07040161 -0.613812 0.38506922 0.52652144 -0.30221808 -0.38364753 -0.24190684 -0.24863519 0.34431756 0.109371245 -0.6416069 -0.21587647 0.24992901 0.018607162 -0.81334174 -0.8568942 0.16908184 0.005120328 0.18508917 -0.069051854 0.59892434
god 0.029607525 0.03872532 0.019605672 0.014118876 -0.007668432 0.0016330415 0.00660636 0.008650481 -0.02772913 -0.02628 -0.026280293 0.011152031 0.0034081552 0.0034658483 0.010423455 0.011690041 -0.017617978 0.009451427 0.024044827 0.031732805 0.0043644635 -0.030685345 -0.0058184844 0.022753416 0.018698646 0.008835748 0.021630287 0.006483582 0.032542292 -0.007374935 0.024905976 0.012498706 -0.0073651234 -0.01298456 -0.0062354645 -0.0026935036 0.0050655697 0.027844217 -0.034773882 0.0108179115 -0.024393847 -0.018354854 0.010547558 0.0037780541 -0.0007008534 0.0019664364 0.0040707616 -0.0027551008 0.004944703 -0.0031924015 -0.006060675 -0.034247484 0.005928215 0.0027601062 -0.047107626 0.0062843473 0.0014505853 0.014233104 0.022327362 0.012387576 -0.027264273 0.002382108 -0.029094646 -0.0036624488 0.023658946 -0.0096697 -0.012972607 0.031413775 0.0012278396 -0.022569802 0.020259695 0.0153675 -0.003782339 -0.000856525 -0.024322355 -0.03334634 -0.004237518 0.002787134 0.026881998 0.0013049837 -0.042353235 0.021643067 0.03740247 -0.01596038 -0.025197428 -0.01229394 -0.018590946 0.025854878 0.006004688 -0.044731524 -0.014207708 0.013092691 0.0007350248 -0.053405445 -0.050004244 0.012066526 5.4683594e-05 0.01589228 -0.0057720374 0.040317968
often 0.086299635 0.104725175 0.042464055 0.04252327 -0.04057508 0.010143572 0.030937638 0.02216345 -0.065999694 -0.08169212 -0.07504459 0.03430178 0.0066964747 -0.0031430658 0.02015478 0.03392355 -0.051937994 0.02652046 0.0598366 0.0974824 0.024475439 -0.08297897 -0.008641025 0.061022095 0.048639923 0.02743673 0.056480907 0.0060917228 0.08691735 -0.022122096 0.06927466 0.025285816 -0.026159795 -0.033918224 -0.028619187 -0.014613289 0.0025700405 0.07537899 -0.101856664 0.041631225 -0.06218968 -0.04538086 0.01648449 0.008015505 -0.01783832 -0.0027666686 -0.0006640349 -0.008350925 0.0071764784 -0.0015191034 -0.017533133 -0.11657493 0.032154754 -0.0015277473 -0.13682254 0.01202237 -0.006704104 0.031276703 0.072957546 0.046801314 -0.080349505 0.0042477506 -0.078560814 -0.0020543581 0.06263181 -0.018451981 -0.024436172 0.098546274 -0.005559648 -0.06343151 0.046826087 0.037829228 -0.0198141 0.0071693603 -0.08398333 -0.0857903 -0.02189346 0.026910516 0.08316743 0.0116057275 -0.11444323 0.07022317 0.09873115 -0.052185904 -0.07428571 -0.04201635 -0.042550165 0.06788905 0.020920185 -0.11947081 -0.036911935 0.04693297 0.005428738 -0.15727222 -0.1633822 0.030757403 0.0003188982 0.037571453 -0.009398108 0.11797112
puts 0.014017455 0.016873164 0.011028315 0.008455712 -0.001795009 -0.003761549 0.0017256878 0.00021966909 -0.014833297 -0.013037336 -0.012406844 0.007302984 0.0061522727 -0.00050320884 0.0047077574 0.0009957879 -0.0122648105 0.003846761 0.013777822 0.017725188 0.0044890754 -0.017754328 -0.006250274 0.0143479975 0.005319517 0.008646731 0.0056173606 -0.0025984452 0.014359751 -0.003921131 0.011925587 0.0038840582 -0.003449514 -0.0054550394 -0.008573813 0.0007015175 0.0025789337 0.0105475355 -0.019047152 0.0054035047 -0.0074012764 -0.0040040934 0.0023525564 0.002532037 0.001642513 -0.0032420182 -0.00173354 -0.0037938028 -0.0040382026 -0.003995877 0.0013587086 -0.013962633 0.008092848 -0.0016012993 -0.019495029 0.004938268 -0.0029341239 0.009540688 0.009361122 0.0060442504 -0.009592787 -0.0018070225 -0.017388664 -0.00014506078 0.005208325 -0.0047019925 -0.009129093 0.016102327 0.0042266976 -0.008844249 0.008173534 0.010238832 -0.00075025787 0.0030705843 -0.011884837 -0.012849181 -0.003618533 -0.0005079616 0.016479457 0.003016715 -0.023565015 0.014179349 0.015564661 -0.0073345406 -0.011802846 -0.00926903 -0.0048991307 0.011387592 0.0030764989 -0.017684963 -0.0052783084 0.008240462 0.0019590452 -0.021617325 -0.026075639 0.008407486 -0.0031531272 0.004231127 -0.0014407487 0.014534698
strangers 0.020233352 0.021878 0.008952929 0.011615809 -0.0047130166 0.0060443264 0.0089836875 -0.0003372791 -0.020300312 -0.022055056 -0.017933682 0.011611706 0.006698045 0.0015435262 0.0042926385 0.0044201002 -0.013132768 0.004249842 0.019870233 0.0260543 0.011320566 -0.019656386 -0.004197908 0.015166224 0.010231808 0.008953931 0.013618532 0.0028924772 0.0219958 -0.0014857443 0.020845974 0.002455046 -0.009997797 -0.010968983 -0.011458442 -0.006978837 -0.0030717156 0.01667812 -0.03034318 0.008869781 -0.012693333 -0.009337599 0.0030489867 0.0039780173 0.00020130462 0.003431407 -0.0033719947 -0.0026280263 -0.0037851194 -0.00023022018 0.0008389538 -0.026098244 0.0087278625 -0.0040603187 -0.039331067 0.0077574626 -0.004531212 0.00599209 0.022000797 0.016540043 -0.023171313 0.0037587965 -0.018965563 -0.0021595072 0.019085303 -0.0011541845 -0.011022119 0.021077983 -0.005743232 -0.014936933 0.0143368365 0.006926159 -0.0048066936 0.0030713629 -0.023939 -0.022854961 -0.010556023 0.003786397 0.024602186 0.0067085708 -0.031080663 0.0204026 0.023228472 -0.011840336 -0.0222651 -0.011873685 -0.008727967 0.02077805 0.0060094185 -0.031879786 -0.014464838 0.008910941 0.0045538675 -0.0362583 -0.045695167 0.0066333935 0.003515044 0.010733502 -0.006047881 0.024295619
in 0.5387723 0.662979 0.2869195 0.25111505 -0.23431756 0.039925706 0.20161079 0.1149447 -0.449547 -0.490476 -0.46395397 0.21922974 0.078798845 0.0006878773 0.10499519 0.2021878 -0.31306678 0.20197777 0.379014 0.6050379 0.16708554 -0.5076158 -0.076573364 0.39572206 0.33261955 0.19061334 0.33348075 0.036829095 0.5666738 -0.11222243 0.43475944 0.16153985 -0.18987334 -0.21498609 -0.18433762 -0.11542918 0.037480567 0.516809 -0.62961054 0.27345085 -0.40852892 -0.31763384 0.11322428 0.045245197 -0.08498316 0.007811068 0.010846187 -0.031900432 0.026648927 0.007891573 -0.09735398 -0.74608165 0.18145655 0.016009461 -0.8517396 0.09595355 -0.033372883 0.2278369 0.48141626 0.28543258 -0.5406623 0.0308239 -0.5074034 0.0011770902 0.39276308 -0.12588897 -0.18628144 0.62285286 -0.02975527 -0.3867775 0.30131295 0.26430592 -0.1146711 0.045198206 -0.53385186 -0.54598266 -0.14400923 0.14299868 0.5242014 0.08385886 -0.74565464 0.47079688 0.6381366 -0.3639181 -0.45973155 -0.30027676 -0.30503824 0.42093033 0.12913163 -0.78044397 -0.26346245 0.30821073 0.03190329 -0.98180956 -1.0402129 0.2048931 0.009185852 0.21886024 -0.08565896 0.7265605
front 0.010998465 0.016062371 0.004969385 0.0025070547 -0.004133586 0.0023249243 0.0061713513 0.00093354593 -0.014384579 -0.012666633 -0.0066596633 0.0049997247 -0.00010811551 0.00025530247 -0.0017619169 0.007016958 -0.0063856314 0.004902881 0.004938581 0.017738739 0.0064091915 -0.016298065 0.00123671 0.0121390205 0.007960157 0.0045797355 0.0044480115 -0.0039209346 0.011790489 -0.0059758127 0.01320678 0.0063292743 -0.0071783 -0.009782506 -0.0079817055 -0.005251842 -0.0002687046 0.01493997 -0.01938244 0.0022489887 -0.013475801 -0.010527487 0.0028788194 -0.0036850641 -0.0031839812 -0.0034251 -0.0005765807 -0.0029139337 0.0019584543 -0.0045484533 0.00062560954 -0.021960612 0.0028908597 0.0041615614 -0.01564864 0.0014110697 0.00017783398 0.00516599 0.009332355 0.005395182 -0.01446393 0.005506133 -0.011651242 -0.0008320195 0.0045638736 -0.00228793 -0.0034910582 0.015149895 -0.002358562 -0.0118526975 0.00323559 0.0011691847 -0.0070025465 0.004490752 -0.012942092 -0.01104573 -0.0030450274 0.000904772 0.012338174 -0.001438551 -0.018430134 0.013581814 0.012536633 -0.010369026 -0.012596259 -0.0073345443 -0.006765175 0.01170403 -0.0018611467 -0.0137256365 -0.0019477481 0.005308573 -0.003441422 -0.024366027 -0.0287246 0.0027690034 -0.00013688939 0.0034010408 -0.0037262389 0.014646263
gives 0.006622563 0.012766627 0.005407977 0.005191873 0.00027785852 0.0040155295 0.0018897746 -0.00010715918 -0.0065751253 -0.0083803125 -0.012728349 0.002653446 0.002535687 -0.0034525853 -0.0004881897 0.0011262705 -0.004875585 0.008215825 0.0057310364 0.01628499 0.0014256572 -0.0093814 -0.0031475404 0.010608615 0.0059119356 0.0075513828 0.008115244 -0.00010556387 0.015579302 -0.0016855411 0.0076570357 0.0022952876 -9.8235905e-05 -0.008354097 -0.00072035316 -0.0024461616 0.00021787462 0.008239302 -0.0080906935 0.00631856 -0.012171166 -0.011249086 0.004202024 0.0013949111 -0.0043134205 0.0043959925 0.0031667328 -0.0037207117 -0.0018986831 0.0013146601 0.00041440697 -0.013146403 0.007510661 -0.0032655173 -0.014383112 -0.0031308688 0.004076364 0.0050474936 0.0094533125 0.0039715674 -0.013218153 -0.00029904806 -0.0139785735 -0.0046568136 0.008483951 -0.0052267015 -0.0076142736 0.01290146 0.0029270367 -0.003722811 0.0044726986 0.00044518604 0.0012755063 -0.003322163 -0.009522264 -0.0060787653 -0.0056396564 0.0031747525 0.00545373 0.0032934642 -0.0134910615 0.004370725 0.014312152 -0.006490015 -0.005692569 -0.0049688504 -0.0050264983 0.003807717 0.0021098114 -0.018764379 -0.0039263293 0.0023085326 0.0037748644 -0.02146324 -0.017242065 0.0041302186 0.0025392766 0.008228117 0.0022994063 0.015000892
an 0.3960784 0.50098425 0.21958764 0.191058 -0.17540309 0.026086561 0.15007073 0.08372479 -0.3392986 -0.36352977 -0.3536933 0.1624337 0.057306897 0.0005223791 0.078269206 0.15256107 -0.23467955 0.14931265 0.28545398 0.45691347 0.118590355 -0.37481588 -0.055655945 0.29981005 0.2464171 0.14450234 0.25228757 0.027191265 0.4223588 -0.08350568 0.3223196 0.11655606 -0.14843757 -0.15592718 -0.14101197 -0.083483346 0.029337982 0.38304725 -0.46859545 0.19791022 -0.3008964 -0.2447647 0.083592355 0.03658601 -0.06728127 0.0069582574 0.0047672167 -0.023851264 0.025116798 0.0036097937 -0.07165814 -0.5552556 0.1366535 0.014335674 -0.63838065 0.064422995 -0.026969217 0.17029782 0.36710054 0.21088716 -0.41023505 0.023109162 -0.3809647 -0.0016574909 0.294635 -0.08784993 -0.136406 0.46445617 -0.019513536 -0.28242287 0.21899231 0.19831008 -0.09270422 0.03524533 -0.39823166 -0.40500546 -0.112166196 0.11267787 0.38453898 0.060498863 -0.56099916 0.3478023 0.48269075 -0.2740372 -0.34471205 -0.22451362 -0.22848992 0.31268606 0.09604219 -0.57766813 -0.19944511 0.223207 0.0208953 -0.7329065 -0.77975416 0.15542696 0.00814827 0.16757485 -0.06665727 0.5389707
opportunity 0.01351692 0.017408699 0.004741311 0.0053658583 -0.009599429 0.0049622105 3.0871706e-05 0.0059328424 -0.013000775 -0.011292495 -0.0076412833 0.0029802218 0.0042008087 -0.0008577655 -3.678897e-05 0.005444296 -0.006393805 0.006267696 0.008511513 0.007538462 0.005195503 -0.0052169864 -0.0039173556 0.012456123 0.006299756 0.0038951342 0.004704048 -0.0009043372 0.011412379 -0.003168849 0.013469681 0.00045659227 -0.008799397 -0.0077509093 -0.004435996 -0.0022518625 1.798722e-05 0.014024165 -0.01368522 0.008368175 -0.011759832 -0.005311177 0.0042784195 0.0029512993 0.0027399522 0.002319163 0.004216296 -0.0016652081 0.004066615 0.0040314216 0.0010454671 -0.017819107 0.007297804 0.0007234851 -0.0192705 0.004325651 0.001134144 -0.00021973415 0.0103592845 0.006604043 -0.014818174 -0.0013230104 -0.007728186 -0.0006027068 0.003802737 -0.0012837928 -0.0013714053 0.016717888 0.0024762182 -0.011385232 0.0021900733 0.008645109 -0.0039118575 0.0047131223 -0.00934352 -0.011365978 -0.0013510613 0.0035076928 0.0134608755 -0.0007891325 -0.018906957 0.014272131 0.0142845595 -0.0053303256 -0.009954528 -0.008446018 -0.0030433454 0.00898474 0.005792829 -0.018501138 -0.0068784696 0.010427597 0.0023564384 -0.020164507 -0.022545056 0.006617633 -0.0020112444 0.0054414165 -0.001514871 0.015980314
connect 0.010062886 0.0108764265 0.004920136 0.0079417145 -0.0023627991 0.0032044135 0.0015137064 0.0029601797 -0.009708331 -0.008050222 -0.012172693 0.004640164 0.0036492671 -0.00053417176 -0.00043542066 0.0025350533 -0.0028962556 0.0051225447 0.0066222004 0.007860448 0.0055473135 -0.00914322 -0.0019829704 0.007640212 0.010231224 0.0007115479 0.009909282 -0.0020862108 0.014882019 -0.006072599 0.011871508 0.0045730565 -0.002346809 -0.0017003891 -0.004199546 0.001880605 -0.0025580479 0.013310132 -0.013049272 0.0064257095 -0.012100223 -0.0046736444 0.0059320116 0.0046914374 0.00010701983 0.0035866965 -0.00044527056 0.0018341757 0.0006133046 -0.0031044472 -0.004024645 -0.014553717 0.0041045165 -0.004494441 -0.018111672 0.0026491403 -0.0036383918 0.0073714983 0.006320528 0.007199546 -0.009210485 0.0043145306 -0.0062655173 -0.0011998862 0.0062691015 -0.0049346727 -0.0049102684 0.009682744 0.0018997616 -0.005405518 0.0025800902 0.002751999 0.0010927552 -0.0010446593 -0.008551273 -0.011876343 0.001019963 0.006395201 0.0056589143 0.0026067048 -0.012036006 0.01134608 0.017738285 -0.008681922 -0.011302256 -0.01024132 -0.010845784 0.009272665 -0.0007142359 -0.017150344 -0.004276413 0.009496016 -0.0043546343 -0.022069728 -0.023746023 0.0015832137 0.0021527049 0.006786663 -0.0006802314 0.016647814
with 0.43517327 0.545163 0.23391369 0.20651247 -0.18905282 0.035257544 0.16438852 0.09656575 -0.3703129 -0.39754012 -0.38044435 0.18550314 0.06552854 0.006653483 0.08202483 0.1665479 -0.25245938 0.15660411 0.3143469 0.49674144 0.13004576 -0.41873685 -0.062082723 0.32351327 0.27164346 0.15170397 0.27060795 0.03435861 0.46736595 -0.08737764 0.3581634 0.12572794 -0.1621008 -0.17546779 -0.15367094 -0.0893858 0.03525576 0.4224327 -0.51945025 0.21866713 -0.336066 -0.26085788 0.09388401 0.03998457 -0.07348647 0.0050570867 0.0038943451 -0.026682364 0.029218668 0.011710352 -0.0721581 -0.60668325 0.14244628 0.014573433 -0.70242864 0.07193185 -0.02811585 0.18073659 0.39993975 0.23627298 -0.44522753 0.020112526 -0.41330796 -0.006235182 0.32449624 -0.100007616 -0.15080431 0.5040302 -0.018435648 -0.31465426 0.24096411 0.20935185 -0.0930633 0.039698225 -0.44007927 -0.43874115 -0.11861184 0.12301157 0.42909572 0.06558874 -0.61541563 0.38642943 0.5236969 -0.30009186 -0.38422224 -0.24119721 -0.24613732 0.34442466 0.110873476 -0.6313162 -0.21226026 0.2447227 0.023789994 -0.80817586 -0.8527867 0.17039324 0.0051755975 0.18076238 -0.06962597 0.5931968
moment 0.026346829 0.03301265 0.009254737 0.0108388765 -0.013777533 -0.000103802115 0.0047035576 0.0016896429 -0.018361159 -0.027276956 -0.019706575 0.010871772 -8.639491e-05 0.0017003618 0.006905922 0.005459266 -0.018073307 0.01165624 0.019509118 0.029719373 0.009739627 -0.02199553 -0.0023358413 0.023017906 0.01303014 0.011927234 0.013002482 -0.0009269958 0.02470283 -0.0062503368 0.025855761 0.004750706 -0.007976187 -0.010108676 -0.011716499 -0.0054088994 0.002242015 0.027152717 -0.031478487 0.016299551 -0.023868278 -0.015980087 0.0011874447 0.0060673775 -0.0006481334 -0.0004356407 0.0021900367 0.0026849094 0.0010477441 0.0021778431 -0.005922187 -0.032479256 0.0083284015 -0.00074929005 -0.04149465 0.005008275 -0.004967646 0.0149211055 0.02185199 0.012367684 -0.022682542 -0.0030853858 -0.0202287 -0.004135791 0.01705146 -0.0041964566 -0.005479534 0.033213492 -0.0019892831 -0.019495979 0.014572247 0.010932197 -0.009868027 0.0068054795 -0.021609552 -0.023264317 -0.0047813277 0.001973775 0.029168196 0.0039163674 -0.037887238 0.020229092 0.030859165 -0.021980092 -0.020172983 -0.011031218 -0.017960712 0.016018046 0.004053126 -0.040465787 -0.014464546 0.011722224 0.003914022 -0.048483398 -0.04871363 0.0071968953 -0.0042266194 0.013750822 -0.0018140597 0.03883527
deeply 0.022675676 0.021481484 0.008341456 0.008657377 -0.010398269 -0.0027034506 0.0046747546 0.0008502644 -0.021189228 -0.01636246 -0.02009175 0.0059872232 0.00050215144 0.0020867905 0.007777116 0.011145639 -0.012028223 0.008947686 0.012809556 0.019374562 0.0035756694 -0.01958428 -0.0052376394 0.010764004 0.014947492 0.008900324 0.016657649 -0.0008727366 0.019898642 -0.006312628 0.01952643 0.004055996 -0.0115808295 -0.0029624936 -0.009456488 -0.0063706944 -0.0006362347 0.014928871 -0.020493254 0.014272784 -0.017239936 -0.014183895 0.0041463436 0.003673539 -0.0014173832 -0.0035648602 0.0023941307 -0.0013729007 -0.0030467198 0.0026147207 0.000894894 -0.029459124 0.009190734 0.004407694 -0.027860092 0.005504964 -0.00096115534 0.0077113463 0.022700064 0.007246469 -0.024655804 0.0006547803 -0.020611888 -0.0026886621 0.018390696 -0.003690188 -0.0037405568 0.02485096 -0.0019239731 -0.017052421 0.007905246 0.0078012194 -0.001791613 0.0021123092 -0.018659024 -0.024865188 -0.0054758526 0.0012201122 0.015947139 -0.001786441 -0.027021766 0.020659026 0.024506407 -0.0120908115 -0.013772029 -0.014673399 -0.015126145 0.01603255 0.0026800286 -0.027634421 -0.0072971312 0.010168432 0.0020050507 -0.036925547 -0.034511607 0.004481418 -0.0020568185 0.012923629 -0.0055504683 0.022342905
meaningful 0.029435627 0.041133776 0.018456696 0.014792971 -0.010408108 0.0064318427 0.016902193 0.0032220574 -0.029823715 -0.031802766 -0.027785182 0.010825158 0.0026675754 -0.0009857215 0.0027762628 0.014371644 -0.021777766 0.00872684 0.02719239 0.04202405 0.0075982073 -0.033367172 -0.009342831 0.020976558 0.017641228 0.0074009243 0.01732853 -0.0024460887 0.03439599 -0.0037170912 0.029359445 0.009481423 -0.017066462 -0.015105242 -0.007476817 -0.007657509 -0.0011248963 0.033218555 -0.039254688 0.016062187 -0.021786205 -0.020368667 0.012208126 0.00025781844 -0.0104753515 0.003127693 0.0003599105 -0.00225316 0.0034143566 -0.003880061 -0.00657128 -0.051196367 0.009202625 -0.0020553407 -0.05296226 0.007558999 0.0008552861 0.011106768 0.026718343 0.016437935 -0.029623285 -0.0003709742 -0.03633579 0.0023399142 0.02290363 -0.0077658137 -0.007948775 0.042179674 -0.0007616548 -0.02750233 0.018707642 0.012576131 -0.011828201 0.0021020174 -0.033320803 -0.036873043 -0.012055592 0.005664916 0.029630713 0.0079749115 -0.051471774 0.031302474 0.038928498 -0.02768273 -0.024421286 -0.021585021 -0.023229178 0.026197096 0.0059149857 -0.044036455 -0.013471616 0.017921828 0.003345214 -0.059179448 -0.06608362 0.013709293 -0.0005307308 0.013641788 -0.0057018166 0.04758023
ways 0.027830733 0.032190375 0.013232347 0.012771893 -0.012231135 -0.0017152029 0.010914282 0.005054067 -0.026896736 -0.0274021 -0.025300337 0.009453547 0.00022192983 -0.0026992692 0.004462703 0.012097624 -0.015374049 0.009913928 0.024011996 0.037961353 0.013657917 -0.028780652 -0.0050701853 0.023635644 0.0205931 0.00790618 0.017443802 0.0015642593 0.026534768 -0.0044595012 0.027573913 0.013362624 -0.0065162554 -0.008345032 -0.012473563 -0.008268075 0.0023395978 0.031244675 -0.03524756 0.0156060485 -0.025846494 -0.018473146 0.007802451 0.0075359335 -0.0068064188 0.005099614 0.0038467192 -0.0038586853 0.0045081764 -0.003049809 -0.0017333269 -0.045604486 0.008884106 -0.0018827483 -0.049969684 0.00865794 -0.004435433 0.008144407 0.030086547 0.015428001 -0.0310744 0.002307127 -0.02442256 0.0009021087 0.02222443 -0.0066081043 -0.011343059 0.036344826 0.0033278293 -0.02281745 0.014245516 0.01766269 -0.0017272426 0.0056449347 -0.02883865 -0.029367875 -0.006204229 0.0039592055 0.033372674 -0.00021485453 -0.043116115 0.02565777 0.03748731 -0.023945672 -0.023835061 -0.016386589 -0.01723281 0.019637952 0.004648065 -0.04271806 -0.010299485 0.020023154 -0.00029539454 -0.053355847 -0.061969064 0.011135419 -0.0021677143 0.014778071 -0.00076504715 0.04483205
know 0.240359 0.30410805 0.13117614 0.11534865 -0.106156446 0.022839392 0.08626709 0.05186249 -0.1991667 -0.21712793 -0.20926142 0.10313733 0.033646096 -0.00022018257 0.048806213 0.0907093 -0.13894118 0.089501 0.1735699 0.27922654 0.072893456 -0.23056032 -0.036201358 0.18137775 0.1531103 0.084377564 0.1540025 0.020986587 0.25747836 -0.051458836 0.19812144 0.07395764 -0.08771393 -0.09113287 -0.088079564 -0.051328145 0.012445191 0.22847755 -0.28528145 0.12359504 -0.18443334 -0.14619456 0.054080725 0.01767887 -0.037917934 0.004684175 0.0019406107 -0.019205457 0.018715788 0.006752541 -0.042763755 -0.33827785 0.07685912 0.012792161 -0.39052603 0.038490046 -0.019128231 0.10556674 0.21849683 0.13148609 -0.24601828 0.017948994 -0.23191902 -0.0019881611 0.17373933 -0.06029517 -0.07939693 0.27682644 -0.008141146 -0.17255944 0.13284376 0.11791194 -0.056429163 0.017075434 -0.23866922 -0.24371229 -0.06673327 0.06534439 0.23172958 0.040411558 -0.33969185 0.216312 0.2929072 -0.16184182 -0.21328259 -0.13548188 -0.13769399 0.18883431 0.05689149 -0.35605416 -0.11621332 0.14235382 0.008817277 -0.44694293 -0.46832964 0.096748054 0.0030901704 0.09465082 -0.04342263 0.33235234
things 0.1757536 0.22223076 0.09264019 0.0775012 -0.07872491 0.011888941 0.060470067 0.040670127 -0.14127645 -0.16101086 -0.15105154 0.07670189 0.021517282 0.0025338032 0.030319333 0.06126659 -0.09917817 0.06555316 0.121445045 0.19956821 0.05765979 -0.16112667 -0.024197096 0.12974441 0.104702406 0.059960835 0.11061692 0.015919806 0.18737496 -0.039399058 0.14533305 0.04771587 -0.066726714 -0.06736097 -0.06299368 -0.036809124 0.01748928 0.1704859 -0.20132951 0.08356762 -0.12909456 -0.10825177 0.039388016 0.010241315 -0.02952704 0.00480766 -0.0022103512 -0.011865287 0.014409291 0.0010329843 -0.03110623 -0.24291533 0.060378477 0.0073181666 -0.27415884 0.032769248 -0.014454238 0.068399146 0.15452483 0.088325985 -0.17472695 0.011230613 -0.16210644 -0.005619495 0.12837712 -0.03983158 -0.062861264 0.20149295 -0.010260542 -0.12591422 0.101217866 0.080995254 -0.0354032 0.013832783 -0.17310569 -0.17923447 -0.043517184 0.04221107 0.17268404 0.031542856 -0.24729435 0.15188581 0.20648496 -0.12153959 -0.15494056 -0.10173426 -0.09313236 0.13671432 0.04429879 -0.25471336 -0.08900501 0.098292634 0.006479108 -0.32486424 -0.33704567 0.06763487 0.0061417483 0.07399236 -0.029435499 0.2404296
about 0.3998966 0.495877 0.21640575 0.18773241 -0.17563656 0.026520528 0.15212138 0.08723475 -0.33644205 -0.36488125 -0.34562945 0.16802979 0.052445207 0.007538598 0.08321723 0.1437186 -0.23396708 0.14393426 0.28372365 0.45708537 0.12005149 -0.37293455 -0.057715945 0.2949389 0.24691463 0.14075929 0.24956962 0.032370612 0.42018428 -0.08300338 0.32989267 0.11646777 -0.14306644 -0.15616354 -0.13617867 -0.086310156 0.03329672 0.3847757 -0.47400975 0.19801244 -0.29915532 -0.23515765 0.09055385 0.038063634 -0.062009197 0.010151862 0.0030973558 -0.023225479 0.024686165 0.0038275039 -0.070812374 -0.5532298 0.13484018 0.01935245 -0.6427936 0.0706884 -0.025544656 0.16808411 0.36837766 0.21487613 -0.40651572 0.025639974 -0.37260434 0.003091133 0.29280692 -0.0942822 -0.13412571 0.46621123 -0.020655949 -0.2925805 0.2246264 0.1945266 -0.09130029 0.037835564 -0.40277213 -0.40434095 -0.1136028 0.10408018 0.38991913 0.061564296 -0.55637413 0.35240984 0.4846716 -0.2658311 -0.34400314 -0.22755493 -0.22891052 0.320667 0.10322246 -0.5782285 -0.1982708 0.22680746 0.015174378 -0.7326873 -0.77433205 0.1537747 0.012595339 0.16119158 -0.06185768 0.5457015
without 0.013790534 0.01540792 0.009217003 0.0009076274 -0.0065680975 -0.002843663 0.0009211015 0.006640824 -0.0060449913 -0.012028382 -0.00861467 0.002993036 0.0012796229 -0.0017099687 0.0007742686 0.001771151 -0.008783153 0.006589954 0.0034768567 0.012442347 -0.001881189 -0.010180419 -0.0061702994 0.008921231 0.0021137637 0.005569687 0.003968058 0.00070269016 0.011109122 -0.0032318162 0.0055270186 0.006852981 -0.0058041434 -7.845946e-05 -0.006937147 0.000930627 0.0019089244 0.0065441956 -0.012767146 0.0060558803 -0.006248617 -0.008279643 7.6584474e-05 -0.003887598 -0.005352407 0.0022091495 -0.0012948164 -0.0040547512 -0.0025453928 0.0007200722 -0.0038222217 -0.014752856 0.0034701445 0.003656563 -0.012867438 -0.0019907213 -0.0016759976 0.0072368053 0.009090733 0.0076002837 -0.011594806 -0.000345504 -0.0073289345 -0.0043264935 0.011017445 -0.0034017889 -0.007810562 0.01149695 -0.0009167476 -0.0026233755 0.008049344 0.0030744092 -0.0060654175 0.0013998788 -0.0051788674 -0.01074628 -0.0019540268 0.001116878 0.012320015 -0.001678667 -0.011495246 0.00866613 0.011324236 -0.007255189 -0.009118354 -0.0058364547 -0.009628023 0.007571702 0.0017832967 -0.016650246 -0.004245622 0.009112089 0.00025619584 -0.018368917 -0.021175744 0.005776092 0.0027607374 0.0047082324 -0.002922154 0.016114619
telling 0.010636951 0.008648625 0.0069114934 0.005538532 -0.0010775295 0.00020564519 -0.0005079534 -0.0019742586 -0.006402219 -0.0013805926 -0.0034871167 0.0039814594 2.8526349e-05 -0.00023408962 0.0046706535 0.0030116139 -0.008484123 -0.0023963063 0.002334502 0.0102996295 0.00020901163 -0.008360243 0.0011705782 0.00016534189 0.0023302566 0.0012300451 0.0038380455 -0.0021376628 0.0035197048 -0.00086652423 0.003285187 -0.00077055977 0.0022721612 -0.004140515 -0.006524116 0.0021512692 -0.0014115213 0.0079883505 -0.01004809 0.0074042957 -0.0024198033 -0.006404058 0.0024514208 0.00042188086 0.0038660676 0.0019539362 0.0005472696 -0.003861278 0.0022583243 -0.0036037334 -0.003763969 -0.010912201 -0.0015898228 0.0029150594 -0.013455235 0.0022420117 -0.0037562726 0.00029353995 0.0038938732 -0.00083422527 -0.0038469366 -0.0039343196 -0.009194604 -0.0019443409 0.0021533351 -0.0028615221 -0.0061716093 0.008090014 0.0024211614 -0.006678979 0.006342662 6.318059e-05 0.00016699836 0.004005313 -0.0020396884 -0.008138009 -0.0033052473 0.0009646856 0.0029588738 0.0020148726 -0.00915523 0.0046221064 0.008290003 -0.00030860922 -0.0042838487 -0.0072692824 -0.0047690608 0.008755218 -0.0031780202 -0.01155313 0.0010133969 0.0010369623 0.003901048 -0.014133756 -0.0136569645 0.0038939328 -0.0017076351 0.006742149 0.0016781669 0.004828311
mean 0.05863865 0.06594571 0.029339725 0.029513638 -0.02057115 0.0037686413 0.020695161 0.014246042 -0.043477505 -0.0452127 -0.047096074 0.022983143 0.009608778 -0.0045037116 0.013280249 0.019973334 -0.03623831 0.01644806 0.034734394 0.06422319 0.017854435 -0.05219387 -0.0032373373 0.044493 0.03056091 0.021248167 0.030791894 0.0028113716 0.06238353 -0.0106777875 0.047661856 0.011656571 -0.017308865 -0.023754463 -0.01998843 -0.014433937 0.00080331677 0.05219851 -0.06387114 0.025754165 -0.041865095 -0.02921788 0.013960544 0.0013169649 -0.00847731 0.0043642214 0.0022420052 -0.006147279 0.007381909 0.002771888 -0.011296983 -0.072446324 0.022249887 0.0038922313 -0.085944824 0.0143507 -9.761879e-05 0.02500681 0.053103767 0.029743964 -0.05208063 0.0014745239 -0.05316074 -0.0050413935 0.03543257 -0.01741795 -0.023928769 0.06447329 -0.007020037 -0.039284907 0.02569715 0.030214611 -0.013474469 0.00029357974 -0.056526564 -0.05769528 -0.0141491 0.018862503 0.054433707 0.009853131 -0.07767779 0.043788962 0.06825458 -0.032082208 -0.04759613 -0.02844248 -0.032201383 0.037986875 0.017917696 -0.083245754 -0.024274435 0.030349936 0.0036890865 -0.10018584 -0.101783976 0.016230682 0.0057443082 0.025209965 -0.013341556 0.073247455
6th 0.005299934 0.008579938 -0.002683795 -0.0006019956 -0.00038532758 0.0020103927 0.0019743969 0.0019802742 -0.0010727488 -0.0041204668 -0.0077080606 0.0038983244 0.00038244124 0.0024847211 -0.0012362963 -0.0018975197 0.0013541766 -0.0011058139 0.0048504537 0.00469478 0.0020961992 0.0001984458 -0.0032689325 0.0013963894 0.006477741 -0.0026208588 0.0021399609 0.0030623032 0.008371919 -0.0033999535 -3.4984783e-05 0.0055184327 -0.0014091504 0.0027549586 -0.0035323997 0.0018248848 -0.0037915965 0.008337539 -0.00289887 -0.0023089002 -0.00030872272 -0.002848131 -0.0031427057 -0.0044130734 0.00070339406 -0.0013595816 -0.0009319936 -0.0010039466 -0.0011205974 0.0048399144 0.0017292463 -0.0020726158 0.00016984346 0.0024563416 -0.005997951 0.00084209675 -0.0022675658 0.002779153 0.0013848804 0.003035957 -0.007488363 0.0035013407 -0.0030318184 -0.00062936364 0.0069708917 0.0037967002 -0.0044634542 0.009588163 0.0017530463 -0.0035749401 -0.0017411209 0.0005934782 -0.0016280704 0.0011288719 -0.006986737 -0.0053791236 -0.005982246 0.00044605683 0.008242079 0.00017527869 -0.0016496388 0.004695039 0.00080302823 -0.0077406806 -0.004394386 -0.0040870523 -0.007228899 0.0031568394 -0.0020581926 -0.004506551 0.0023017852 0.0069757183 0.0012264528 -0.011770211 -0.0068392777 0.00039913598 0.003976012 0.0022054794 -0.0044459086 0.0040872754
